version: 100
cost-factor: 1
maxid: 153482
xsize: 2

B-ADJP
B-ADVP
B-NP
B-PP
B-PRT
B-SBAR
B-VP
I-ADJP
I-ADVP
I-NP
I-PP
I-SBAR
I-VP
O

U00:%x[-2,0]
U01:%x[-1,0]
U02:%x[0,0]
U03:%x[1,0]
U04:%x[2,0]
U05:%x[-1,0]/%x[0,0]
U06:%x[0,0]/%x[1,0]
U10:%x[-2,1]
U11:%x[-1,1]
U12:%x[0,1]
U13:%x[1,1]
U14:%x[2,1]
U15:%x[-2,1]/%x[-1,1]
U16:%x[-1,1]/%x[0,1]
U17:%x[0,1]/%x[1,1]
U18:%x[1,1]/%x[2,1]
U20:%x[-2,1]/%x[-1,1]/%x[0,1]
U21:%x[-1,1]/%x[0,1]/%x[1,1]
U22:%x[0,1]/%x[1,1]/%x[2,1]
B

7546 B
29190 U00:#
30058 U00:$
17556 U00:%
34538 U00:&
137158 U00:'
22176 U00:''
143304 U00:'ll
7070 U00:'s
140714 U00:'ve
4508 U00:,
29848 U00:-LRB-
30534 U00:-RRB-
58716 U00:0.1
45724 U00:1.3
74984 U00:1.5890
75614 U00:1.5940
60522 U00:1.6
41062 U00:1.8
87570 U00:1.8470
87234 U00:1.8578
101584 U00:1.875
124222 U00:10
100030 U00:106.6
81844 U00:13
89950 U00:141.35
88704 U00:141.70
89614 U00:141.95
88494 U00:142.43
18130 U00:15
133322 U00:150
17388 U00:16
95200 U00:19
83048 U00:190
126756 U00:1980
29428 U00:2
100688 U00:2,664,098
31878 U00:2.2
32970 U00:2.3
92414 U00:2.4
76846 U00:2.90
75810 U00:2.9429
75250 U00:2.9495
91560 U00:20
104412 U00:233,000
124502 U00:250
30254 U00:3.2
59654 U00:3.8
125538 U00:30
105070 U00:30,000
132314 U00:35
105518 U00:35.50
105658 U00:36.50
93128 U00:366.50
91224 U00:367.30
101346 U00:38
123816 U00:4
148162 U00:4.7
94752 U00:40
99386 U00:40-a-share
152642 U00:5.3
60928 U00:5.4
133714 U00:6.4
134330 U00:8
103796 U00:8.7
94318 U00:A.P.
98588 U00:An
69538 U00:Analysts
71400 U00:And
139664 U00:Arthur
36904 U00:At
6846 U00:August
82684 U00:Average
26684 U00:Bank
34216 U00:Baring
128324 U00:Bernard
108402 U00:Both
107786 U00:Brick
25844 U00:Briscoe
35462 U00:Britain
34384 U00:Brothers
11550 U00:But
150710 U00:Calif.
139944 U00:Cambridge
130452 U00:Carriers
64484 U00:Certainly
8022 U00:Chancellor
22498 U00:Chris
121548 U00:Clifford
34664 U00:Co.
43792 U00:Combined
97622 U00:Commission
90272 U00:Commodity
532 U00:Confidence
150262 U00:Consolidated
83230 U00:Currency
139734 U00:D.
139342 U00:Delaney
119168 U00:Demand
22610 U00:Dillow
82362 U00:Dow
122038 U00:Du
93324 U00:East
76160 U00:Economists
91784 U00:Estimated
33810 U00:European
90328 U00:Exchange
8484 U00:Exchequer
86170 U00:Federal
26908 U00:Forecasts
79758 U00:Foreign
108948 U00:Freight
150304 U00:Freightways
57120 U00:Friday
134512 U00:GNP
146258 U00:Gerard
94402 U00:Green
108290 U00:Group
40068 U00:He
92848 U00:Hong
14756 U00:House
41440 U00:However
23898 U00:If
52976 U00:In
94570 U00:Inc.
82572 U00:Industrial
94486 U00:Industries
146678 U00:Institute
104062 U00:It
101038 U00:Its
106050 U00:John
82460 U00:Jones
33684 U00:Joshi
6398 U00:July
92890 U00:Kong
106148 U00:Kuhns
128366 U00:LaLonde
86324 U00:Late
8792 U00:Lawson
146860 U00:Less-than-truckload
107828 U00:Lime
93576 U00:Limited
139790 U00:Little
106414 U00:MacDonald
114800 U00:Major
14588 U00:Mansion
140056 U00:Mass.
146622 U00:Massachusetts
146328 U00:McCullough
52388 U00:Meanwhile
150500 U00:Menlo
102354 U00:Mexico
26166 U00:Midland
102508 U00:Mo.
89208 U00:Monday
26278 U00:Montagu
41664 U00:Mr.
50246 U00:Nevertheless
86520 U00:New
8638 U00:Nigel
51058 U00:No
23324 U00:Nomura
144788 U00:Not
141582 U00:Now
81676 U00:Oct.
33348 U00:October
122682 U00:Ohio
90118 U00:On
124138 U00:Only
150570 U00:Park
93506 U00:Partners
93660 U00:Partnership
122108 U00:Pont
149142 U00:Railroad-rate
23408 U00:Research
106316 U00:Robert
93422 U00:Rock
33600 U00:Sanjay
121618 U00:Sayre
97454 U00:Securities
4312 U00:September
122346 U00:Shippers
25746 U00:Simon
122752 U00:State
72968 U00:Sterling
116550 U00:That
20104 U00:The
145600 U00:There
15428 U00:This
67298 U00:Thursday
89110 U00:Tokyo
138544 U00:Transport
111874 U00:Trucking
22974 U00:U.K.
86100 U00:U.S.
122822 U00:University
140560 U00:We
107716 U00:Westwood
86604 U00:York
105938 U00:York-based
143206 U00:You
266 U00:_B-1
0 U00:_B-2
136584 U00:`
19950 U00:``
5740 U00:a
137620 U00:able
38052 U00:about
30982 U00:account
94192 U00:acquire
50050 U00:adjusting
48538 U00:advance
44674 U00:after
65744 U00:again
69650 U00:agree
96404 U00:agreement
112322 U00:air-freight
141022 U00:all
68278 U00:allow
73248 U00:already
46466 U00:also
25158 U00:an
11774 U00:analysts
6622 U00:and
13608 U00:announce
112658 U00:announced
132566 U00:annual
2800 U00:another
13706 U00:any
97804 U00:approval
20972 U00:are
45374 U00:as
23212 U00:at
97090 U00:attached
67788 U00:audience
148050 U00:away
25242 U00:awful
84700 U00:back
20468 U00:bad
77812 U00:balance
130158 U00:bargain
16884 U00:base
108738 U00:based
25074 U00:be
48832 U00:because
12670 U00:been
49924 U00:before
129682 U00:began
80122 U00:begun
16296 U00:being
42126 U00:believes
76762 U00:below
141162 U00:benefits
116760 U00:big
29652 U00:billion
95648 U00:board
36638 U00:boost
103376 U00:boosted
66248 U00:both
110586 U00:bottoming
105224 U00:bought
117614 U00:bright
127806 U00:broad-based
47670 U00:bullish
27678 U00:but
12936 U00:by
53704 U00:can
39676 U00:capital
150892 U00:carrier
142212 U00:carriers
147182 U00:carry
119294 U00:caught
119644 U00:certain
13188 U00:chancellor
116830 U00:change
88228 U00:changing
65170 U00:clear
85526 U00:close
101150 U00:closed
83734 U00:coming
98868 U00:comment
9254 U00:commitment
104622 U00:common
112434 U00:companies
99722 U00:company
125342 U00:compared
60256 U00:compares
148932 U00:competing
109998 U00:competition
118832 U00:competitive
153286 U00:competitors
79352 U00:concerns
73724 U00:confidence
139510 U00:consultant
39382 U00:consumer
98084 U00:contingent
39088 U00:continued
106484 U00:control
139006 U00:cost
114114 U00:costs
24934 U00:could
48006 U00:currency
18004 U00:current
100450 U00:currently
132160 U00:cut
144242 U00:cutting
28210 U00:data
86716 U00:day
79856 U00:dealers
109732 U00:decade
44968 U00:decline
74564 U00:declined
109284 U00:declining
125188 U00:decrease
18396 U00:defend
30618 U00:deficit
90846 U00:delivery
114464 U00:demand
110250 U00:deregulation
135884 U00:directly
121744 U00:director
147952 U00:discounted
151130 U00:discounting
80346 U00:distance
123550 U00:distribution
3206 U00:dive
57232 U00:do
66640 U00:does
78736 U00:dollar
21602 U00:down
127610 U00:dramatic
43414 U00:drop
4690 U00:due
147546 U00:each
131838 U00:eager
54740 U00:earlier
92666 U00:early
85946 U00:easing
84980 U00:economic
23100 U00:economist
18886 U00:economists
52654 U00:economy
131068 U00:efficiently
56322 U00:eight
129962 U00:enabled
66318 U00:ensure
130844 U00:equipment
79576 U00:equities
12810 U00:eroded
47362 U00:even
144872 U00:everyone
49476 U00:evidence
19306 U00:exchange
28042 U00:expect
2072 U00:expected
56728 U00:expenditure
44618 U00:exports
85610 U00:eye
5446 U00:fail
13440 U00:failure
37842 U00:fairly
113246 U00:fall
76580 U00:falls
115640 U00:fast
116256 U00:faster
63882 U00:fears
27804 U00:few
149002 U00:fiercely
20776 U00:figure
3864 U00:figures
97244 U00:filing
9688 U00:firm
60718 U00:first
51940 U00:flat
84546 U00:focus
4102 U00:for
16436 U00:forced
46564 U00:forecasts
19180 U00:foreign
10598 U00:freefall
114590 U00:freight
141358 U00:freight-cost
141946 U00:freight-rate
123284 U00:freight-transport
6188 U00:from
111650 U00:fuel
85106 U00:fundamentals
49420 U00:further
78988 U00:gains
32116 U00:gap
106876 U00:general
38934 U00:given
51478 U00:go
90650 U00:gold
145110 U00:good
39788 U00:goods
140882 U00:gotten
16156 U00:government
133868 U00:gross
125902 U00:had
77462 U00:halt
88340 U00:hands
10122 U00:has
117418 U00:haulage
112560 U00:have
37534 U00:he
21280 U00:heavily
10220 U00:helped
118062 U00:helping
39242 U00:high
71064 U00:higher
55930 U00:highest
14406 U00:his
69958 U00:holding
104314 U00:holds
3402 U00:if
53970 U00:impact
148414 U00:implemented
64330 U00:import
38584 U00:imports
6006 U00:improvement
798 U00:in
104944 U00:including
16702 U00:increase
15680 U00:increased
112812 U00:increases
108038 U00:indirect
35868 U00:industry
134946 U00:inefficiency
115864 U00:inflation
132720 U00:inter-city
54418 U00:interest
51548 U00:into
48944 U00:investors
1554 U00:is
65044 U00:it
84392 U00:its
36386 U00:itself
149870 U00:keen
85344 U00:keeping
73626 U00:lack
15064 U00:last
75964 U00:late
96656 U00:later
43190 U00:lead
131278 U00:leading
44296 U00:least
146426 U00:lecturer
150836 U00:less-than-truckload
95312 U00:letter
18298 U00:level
149772 U00:levels
92288 U00:light
135590 U00:likely
107240 U00:limited
45486 U00:little
121884 U00:logistics
137788 U00:look
125972 U00:looked
25326 U00:lot
64890 U00:made
72394 U00:make
102662 U00:maker
35700 U00:manufacturing
28588 U00:marked
19432 U00:market
75376 U00:marks
42812 U00:material
116158 U00:maybe
14056 U00:measures
96320 U00:merger
92498 U00:million
70252 U00:moment
9856 U00:monetary
55034 U00:month
64204 U00:more
109536 U00:most
120372 U00:move
48692 U00:much
48370 U00:n't
40656 U00:narrow
101906 U00:national
7308 U00:near-record
66010 U00:necessary
13790 U00:new
113484 U00:next
138446 U00:nine
35126 U00:no
68194 U00:not
25648 U00:noted
104202 U00:now
24444 U00:number
98364 U00:obtaining
144466 U00:occurred
8190 U00:of
95872 U00:offer
98742 U00:official
138936 U00:offsetting
21392 U00:on
51156 U00:one
32830 U00:only
89432 U00:opened
138754 U00:opportunity
113344 U00:or
70336 U00:other
91364 U00:ounce
85694 U00:out
38262 U00:outlook
10878 U00:over
101990 U00:over-the-counter
52500 U00:overall
131502 U00:overcapacity
106932 U00:partner
107492 U00:partnership
136766 U00:party
11088 U00:past
142576 U00:pay
128086 U00:perceived
37968 U00:pessimistic
66808 U00:place
152054 U00:plans
82810 U00:plunged
9996 U00:policy
124712 U00:polled
72184 U00:popularity
52066 U00:position
78876 U00:posted
1302 U00:pound
83356 U00:predict
81284 U00:preoccupied
65450 U00:prepared
25452 U00:pressure
10402 U00:prevent
144536 U00:previously
144102 U00:price
134036 U00:product
117908 U00:productivity
128702 U00:professor
70546 U00:promise
99484 U00:proposal
93926 U00:proposed
70952 U00:pushed
58968 U00:quarter
79114 U00:quiet
62020 U00:quite
87108 U00:quoted
132916 U00:rail
149688 U00:rail-traffic
129150 U00:railroads
152306 U00:raise
27286 U00:range
69048 U00:rate
17066 U00:rates
63182 U00:rather
42686 U00:raw
141876 U00:real
44492 U00:rebound
117012 U00:recent
122528 U00:recently
11970 U00:reckon
40124 U00:reckons
143752 U00:recoup
63714 U00:reduce
42406 U00:reduction
135814 U00:reflected
113834 U00:reflecting
102816 U00:refractory
32242 U00:registered
4998 U00:release
56994 U00:released
37702 U00:remains
67620 U00:reminded
142310 U00:replace
31108 U00:reported
9100 U00:restated
118146 U00:restrain
149366 U00:restrained
68418 U00:rigor
54166 U00:rise
135394 U00:rising
15806 U00:risk
20188 U00:risks
58632 U00:rose
22358 U00:said
37072 U00:same
98462 U00:satisfactory
138012 U00:savings
115010 U00:say
136472 U00:saying
112952 U00:scheduled
59136 U00:second
49336 U00:see
139174 U00:segments
22848 U00:senior
63070 U00:services
90930 U00:settled
147378 U00:several
100772 U00:shares
2996 U00:sharp
84238 U00:shift
114898 U00:shippers
112112 U00:shipping
63560 U00:should
5642 U00:show
73360 U00:showing
21784 U00:side
35224 U00:sign
96152 U00:signing
73472 U00:signs
153454 U00:similar
81522 U00:since
121184 U00:slightly
53606 U00:slowdown
57820 U00:slowing
106806 U00:sole
44408 U00:some
72674 U00:sound
14924 U00:speech
58520 U00:spending
117698 U00:spot
110068 U00:spurred
135002 U00:squeezed
151620 U00:stabilize
103474 U00:stake
120204 U00:starting
10780 U00:sterling
61894 U00:still
80738 U00:stock
42924 U00:stockbuilding
123452 U00:storage
62132 U00:strong
96012 U00:subject
108108 U00:subsidiary
5852 U00:substantial
127358 U00:such
57372 U00:suggest
76258 U00:suggested
62496 U00:suggestions
119490 U00:supply
12236 U00:support
122444 U00:surveyed
72310 U00:swiftly
135226 U00:system
2562 U00:take
55146 U00:takes
63280 U00:than
35336 U00:that
1050 U00:the
17850 U00:their
24052 U00:there
71680 U00:they
58912 U00:third
54908 U00:this
111468 U00:threatening
114352 U00:tightened
37212 U00:time
145166 U00:times
2324 U00:to
5166 U00:tomorrow
32760 U00:topped
3626 U00:trade
74298 U00:trading
147728 U00:trailer
36204 U00:transforming
126084 U00:transport
119910 U00:transportation
137942 U00:transportation-cost
132790 U00:truck
129360 U00:trucking
143584 U00:try
49770 U00:turnaround
111020 U00:turning
153216 U00:two
119728 U00:types
12124 U00:underlying
68754 U00:undermined
44898 U00:unexpected
26502 U00:unit
59598 U00:up
98238 U00:upon
127918 U00:upturn
111188 U00:upward
130620 U00:use
99568 U00:values
21140 U00:very
80626 U00:volatile
91896 U00:volume
49126 U00:want
71806 U00:warn
53312 U00:warned
47194 U00:warns
59500 U00:was
126966 U00:we
149576 U00:weakening
69174 U00:weakness
83818 U00:week
62804 U00:went
131712 U00:were
82152 U00:when
81130 U00:which
46312 U00:who
1820 U00:widely
40530 U00:will
43974 U00:with
51730 U00:without
48188 U00:wo
59976 U00:year
117138 U00:years
88550 U00:yen
28980 U01:#
29862 U01:$
17402 U01:%
34398 U01:&
137088 U01:'
21980 U01:''
143220 U01:'ll
6860 U01:'s
140574 U01:'ve
4326 U01:,
29666 U01:-LRB-
30408 U01:-RRB-
69188 U01:.
58646 U01:0.1
45668 U01:1.3
74844 U01:1.5890
75558 U01:1.5940
60438 U01:1.6
40978 U01:1.8
87542 U01:1.8470
87178 U01:1.8578
101514 U01:1.875
124152 U01:10
99988 U01:106.6
81690 U01:13
89894 U01:141.35
88662 U01:141.70
89586 U01:141.95
88424 U01:142.43
18018 U01:15
133252 U01:150
17234 U01:16
95088 U01:19
82992 U01:190
126658 U01:1980
134582 U01:1981
33362 U01:1988
29204 U01:2
100576 U01:2,664,098
31766 U01:2.2
32928 U01:2.3
92302 U01:2.4
76776 U01:2.90
75712 U01:2.9429
75124 U01:2.9495
91504 U01:20
104328 U01:233,000
124404 U01:250
30072 U01:3.2
59612 U01:3.8
125426 U01:30
104958 U01:30,000
96768 U01:31
132258 U01:35
105434 U01:35.50
105630 U01:36.50
93100 U01:366.50
91126 U01:367.30
101276 U01:38
123746 U01:4
148120 U01:4.7
94696 U01:40
99274 U01:40-a-share
152544 U01:5.3
60886 U01:5.4
133672 U01:6.4
134288 U01:8
103754 U01:8.7
94206 U01:A.P.
98546 U01:An
69426 U01:Analysts
71260 U01:And
148470 U01:April
139594 U01:Arthur
36806 U01:At
6636 U01:August
82586 U01:Average
26628 U01:Bank
34048 U01:Baring
128268 U01:Bernard
108794 U01:Boston
108374 U01:Both
107730 U01:Brick
25760 U01:Briscoe
35350 U01:Britain
34230 U01:Brothers
11340 U01:But
150640 U01:Calif.
139888 U01:Cambridge
130354 U01:Carriers
64442 U01:Certainly
7868 U01:Chancellor
22372 U01:Chris
121478 U01:Clifford
122122 U01:Co
34552 U01:Co.
128842 U01:Columbus
43624 U01:Combined
97580 U01:Commission
90202 U01:Commodity
280 U01:Confidence
150206 U01:Consolidated
83160 U01:Currency
139678 U01:D.
139300 U01:Delaney
119070 U01:Demand
22512 U01:Dillow
82278 U01:Dow
121968 U01:Du
93240 U01:East
76062 U01:Economists
91686 U01:Estimated
33754 U01:European
90286 U01:Exchange
8344 U01:Exchequer
86114 U01:Federal
26824 U01:Forecasts
79702 U01:Foreign
108878 U01:Freight
150276 U01:Freightways
57008 U01:Friday
134442 U01:GNP
146188 U01:Gerard
94332 U01:Green
108234 U01:Group
39970 U01:He
92792 U01:Hong
14602 U01:House
41328 U01:However
23730 U01:If
52934 U01:In
108304 U01:Inc
94500 U01:Inc.
82474 U01:Industrial
94416 U01:Industries
23422 U01:Institute
103936 U01:It
100940 U01:Its
105952 U01:John
82376 U01:Jones
33614 U01:Joshi
6202 U01:July
92862 U01:Kong
106064 U01:Kuhns
107044 U01:L.P
128338 U01:LaLonde
86268 U01:Late
8652 U01:Lawson
146804 U01:Less-than-truckload
107800 U01:Lime
93520 U01:Limited
139748 U01:Little
106330 U01:MacDonald
114702 U01:Major
14420 U01:Mansion
78330 U01:Market
140000 U01:Mass.
146566 U01:Massachusetts
146272 U01:McCullough
52318 U01:Meanwhile
150430 U01:Menlo
102270 U01:Mexico
26082 U01:Midland
102438 U01:Mo.
89166 U01:Monday
26180 U01:Montagu
41552 U01:Mr.
50176 U01:Nevertheless
86436 U01:New
8498 U01:Nigel
50932 U01:No
23226 U01:Nomura
144676 U01:Not
141484 U01:Now
81536 U01:Oct.
33222 U01:October
122612 U01:Ohio
90048 U01:On
124040 U01:Only
26698 U01:PLC
150514 U01:Park
93436 U01:Partners
93590 U01:Partnership
122052 U01:Pont
149100 U01:Railroad-rate
23338 U01:Research
86184 U01:Reserve
106232 U01:Robert
93338 U01:Rock
33516 U01:Sanjay
121562 U01:Sayre
97370 U01:Securities
4116 U01:September
122248 U01:Shippers
25662 U01:Simon
122696 U01:State
72828 U01:Sterling
146734 U01:Technology
116480 U01:That
19964 U01:The
145488 U01:There
15288 U01:This
15078 U01:Thursday
89040 U01:Tokyo
138502 U01:Transport
111776 U01:Trucking
22862 U01:U.K.
86030 U01:U.S.
122766 U01:University
140406 U01:We
107618 U01:Westwood
86534 U01:York
105840 U01:York-based
143136 U01:You
14 U01:_B-1
136486 U01:`
19782 U01:``
5656 U01:a
79590 U01:abated
137550 U01:able
37982 U01:about
118846 U01:abroad
30856 U01:account
94066 U01:acquire
49938 U01:adjusting
48384 U01:advance
44632 U01:after
65646 U01:again
59990 U01:ago
69552 U01:agree
96334 U01:agreement
112224 U01:air-freight
140896 U01:all
68208 U01:allow
73108 U01:already
46326 U01:also
25088 U01:an
11564 U01:analysts
6412 U01:and
13538 U01:announce
112574 U01:announced
132482 U01:annual
2576 U01:another
13622 U01:any
97748 U01:approval
20790 U01:are
45276 U01:as
23114 U01:at
97020 U01:attached
67732 U01:audience
147966 U01:away
25172 U01:awful
84560 U01:back
20370 U01:bad
77784 U01:balance
130088 U01:bargain
16716 U01:base
108668 U01:based
24948 U01:be
48706 U01:because
12530 U01:been
49784 U01:before
129584 U01:began
80038 U01:begun
16170 U01:being
42028 U01:believes
76678 U01:below
141120 U01:benefits
116690 U01:big
29442 U01:billion
95564 U01:board
36540 U01:boost
103320 U01:boosted
66150 U01:both
110474 U01:bottoming
105168 U01:bought
117558 U01:bright
127708 U01:broad-based
47614 U01:bullish
27552 U01:but
12824 U01:by
53620 U01:can
39536 U01:capital
150850 U01:carrier
142114 U01:carriers
147112 U01:carry
119238 U01:caught
91574 U01:cents
119574 U01:certain
13062 U01:chancellor
116774 U01:change
88116 U01:changing
65058 U01:clear
85442 U01:close
101108 U01:closed
52808 U01:clouded
83622 U01:coming
98840 U01:comment
9114 U01:commitment
104552 U01:common
112336 U01:companies
99638 U01:company
125286 U01:compared
60158 U01:compares
148834 U01:competing
109914 U01:competition
118720 U01:competitive
153230 U01:competitors
79240 U01:concerns
73682 U01:confidence
139440 U01:consultant
39256 U01:consumer
97958 U01:contingent
38948 U01:continued
106428 U01:control
138950 U01:cost
113974 U01:costs
24780 U01:could
47866 U01:currency
17864 U01:current
100310 U01:currently
132104 U01:cut
144116 U01:cutting
28154 U01:data
86674 U01:day
79814 U01:dealers
109662 U01:decade
44912 U01:decline
74438 U01:declined
109144 U01:declining
125090 U01:decrease
18354 U01:defend
30548 U01:deficit
7322 U01:deficits
90776 U01:delivery
114366 U01:demand
110152 U01:deregulation
135828 U01:directly
121688 U01:director
147840 U01:discounted
151088 U01:discounting
80234 U01:distance
123508 U01:distribution
3010 U01:dive
57134 U01:do
66528 U01:does
78624 U01:dollar
21476 U01:down
127498 U01:dramatic
43358 U01:drop
4522 U01:due
147490 U01:each
131726 U01:eager
54586 U01:earlier
92610 U01:early
85876 U01:easing
84840 U01:economic
22988 U01:economist
18732 U01:economists
52612 U01:economy
55160 U01:effect
130970 U01:efficiently
56210 U01:eight
129864 U01:enabled
66262 U01:ensure
130732 U01:equipment
79478 U01:equities
12684 U01:eroded
47292 U01:even
144802 U01:everyone
49434 U01:evidence
19194 U01:exchange
27930 U01:expect
1834 U01:expected
56616 U01:expenditure
36652 U01:exports
85540 U01:eye
5320 U01:fail
13328 U01:failure
37716 U01:fairly
113134 U01:fall
76468 U01:falls
115584 U01:fast
116172 U01:faster
63728 U01:fears
27692 U01:few
148946 U01:fiercely
20608 U01:figure
3640 U01:figures
97188 U01:filing
131950 U01:fill
98476 U01:financing
9548 U01:firm
60690 U01:first
51828 U01:flat
84406 U01:focus
3878 U01:for
16310 U01:forced
46480 U01:forecasts
19040 U01:foreign
10500 U01:freefall
114534 U01:freight
141302 U01:freight-cost
141890 U01:freight-rate
123186 U01:freight-transport
6020 U01:from
111580 U01:fuel
84994 U01:fundamentals
49350 U01:further
78890 U01:gains
32004 U01:gap
106820 U01:general
38766 U01:given
51380 U01:go
90566 U01:gold
145040 U01:good
39690 U01:goods
140728 U01:gotten
16016 U01:government
133812 U01:gross
125804 U01:had
77434 U01:halt
88242 U01:hands
10010 U01:has
117348 U01:haulage
112448 U01:have
37366 U01:he
21154 U01:heavily
10136 U01:helped
117992 U01:helping
39102 U01:high
70966 U01:higher
55790 U01:highest
14224 U01:his
69916 U01:holding
104216 U01:holds
72688 U01:hollow
3220 U01:if
53942 U01:impact
148344 U01:implemented
64218 U01:import
38416 U01:imports
5866 U01:improvement
546 U01:in
104818 U01:including
16562 U01:increase
15568 U01:increased
112742 U01:increases
107982 U01:indirect
35714 U01:industry
134876 U01:inefficiency
111664 U01:inflation
39802 U01:inflows
132650 U01:inter-city
54278 U01:interest
51492 U01:into
48846 U01:investors
1316 U01:is
64904 U01:it
84252 U01:its
36218 U01:itself
149828 U01:keen
85232 U01:keeping
143038 U01:labor
73570 U01:lack
14938 U01:last
75908 U01:late
96572 U01:later
43134 U01:lead
131180 U01:leading
44156 U01:least
146384 U01:lecturer
150780 U01:less-than-truckload
95214 U01:letter
18228 U01:level
149702 U01:levels
92148 U01:light
135534 U01:likely
107212 U01:limited
45388 U01:little
121814 U01:logistics
137704 U01:look
125916 U01:looked
25256 U01:lot
64750 U01:made
72324 U01:make
102578 U01:maker
35574 U01:manufacturing
28532 U01:marked
19320 U01:market
75264 U01:marks
42700 U01:material
116018 U01:maybe
13916 U01:measures
96264 U01:merger
92428 U01:million
70168 U01:moment
9702 U01:monetary
54922 U01:month
64050 U01:more
109424 U01:most
120288 U01:move
48552 U01:much
48202 U01:n't
40544 U01:narrow
101808 U01:national
7084 U01:near-record
65870 U01:necessary
13720 U01:new
113414 U01:next
138418 U01:nine
35028 U01:no
68124 U01:not
25578 U01:noted
104076 U01:now
24318 U01:number
98252 U01:obtaining
144368 U01:occurred
8036 U01:of
95802 U01:offer
98686 U01:official
138852 U01:offsetting
21294 U01:on
51072 U01:one
32774 U01:only
89376 U01:opened
138670 U01:opportunity
113260 U01:or
70266 U01:other
91308 U01:ounce
92512 U01:ounces
85624 U01:out
38150 U01:outlook
100786 U01:outstanding
10794 U01:over
101920 U01:over-the-counter
52458 U01:overall
131390 U01:overcapacity
106890 U01:partner
107380 U01:partnership
136682 U01:party
10990 U01:past
142492 U01:pay
128016 U01:perceived
37856 U01:pessimistic
66738 U01:place
151928 U01:plans
82698 U01:plunged
83062 U01:points
9870 U01:policy
124614 U01:polled
72100 U01:popularity
51954 U01:position
50064 U01:positions
78750 U01:posted
1064 U01:pound
83300 U01:predict
81228 U01:preoccupied
65422 U01:prepared
25396 U01:pressure
10304 U01:prevent
144480 U01:previously
143990 U01:price
133952 U01:product
117838 U01:productivity
102830 U01:products
128632 U01:professor
70490 U01:promise
99400 U01:proposal
93814 U01:proposed
70826 U01:pushed
58926 U01:quarter
57946 U01:quickly
79058 U01:quiet
61908 U01:quite
87010 U01:quoted
132846 U01:rail
149590 U01:rail-traffic
129066 U01:railroads
152180 U01:raise
27160 U01:range
68936 U01:rate
16898 U01:rates
63084 U01:rather
42546 U01:raw
141806 U01:real
44422 U01:rebound
116914 U01:recent
122458 U01:recently
11788 U01:reckon
40082 U01:reckons
143668 U01:recoup
63574 U01:reduce
42294 U01:reduction
141372 U01:reductions
135730 U01:reflected
113708 U01:reflecting
102746 U01:refractory
32130 U01:registered
4844 U01:release
56868 U01:released
37548 U01:remains
67494 U01:reminded
142226 U01:replace
30996 U01:reported
8946 U01:restated
118118 U01:restrain
149282 U01:restrained
68376 U01:rigor
54110 U01:rise
64344 U01:rises
135310 U01:rising
15764 U01:risk
20118 U01:risks
58534 U01:rose
22190 U01:said
36974 U01:same
98378 U01:satisfactory
137956 U01:savings
19544 U01:say
136346 U01:saying
112882 U01:scheduled
59052 U01:second
49238 U01:see
139146 U01:segments
22722 U01:senior
62944 U01:services
90860 U01:settled
147322 U01:several
94808 U01:share
100702 U01:shares
2814 U01:sharp
84098 U01:shift
114814 U01:shippers
112000 U01:shipping
63462 U01:should
5558 U01:show
73262 U01:showing
21616 U01:side
35140 U01:sign
96110 U01:signing
73430 U01:signs
153398 U01:similar
81424 U01:since
121100 U01:slightly
53508 U01:slowdown
57694 U01:slowing
106722 U01:sole
44310 U01:some
72590 U01:sound
14770 U01:speech
58394 U01:spending
117628 U01:spot
110012 U01:spurred
134960 U01:squeezed
151550 U01:stabilize
103432 U01:stake
120134 U01:starting
10682 U01:sterling
61768 U01:still
80640 U01:stock
42826 U01:stockbuilding
123382 U01:storage
62034 U01:strong
95942 U01:subject
108052 U01:subsidiary
5754 U01:substantial
127218 U01:such
57316 U01:suggest
76174 U01:suggested
62440 U01:suggestions
119420 U01:supply
12138 U01:support
122360 U01:surveyed
72254 U01:swiftly
135156 U01:system
2338 U01:take
55048 U01:takes
63196 U01:than
35238 U01:that
812 U01:the
17710 U01:their
23912 U01:there
71554 U01:they
58856 U01:third
54754 U01:this
111342 U01:threatening
114240 U01:tightened
37086 U01:time
145124 U01:times
2086 U01:to
5012 U01:tomorrow
32648 U01:topped
3416 U01:trade
74172 U01:trading
147630 U01:trailer
36036 U01:transforming
114604 U01:transport
119840 U01:transportation
137872 U01:transportation-cost
132734 U01:truck
129248 U01:trucking
150010 U01:trucks
143500 U01:try
49630 U01:turnaround
110866 U01:turning
153118 U01:two
119658 U01:types
77966 U01:unchanged
11984 U01:underlying
68684 U01:undermined
44814 U01:unexpected
26446 U01:unit
59514 U01:up
98098 U01:upon
127820 U01:upturn
111034 U01:upward
130550 U01:use
99498 U01:values
20986 U01:very
80570 U01:volatile
91798 U01:volume
49042 U01:want
71694 U01:warn
53256 U01:warned
47068 U01:warns
59374 U01:was
126854 U01:we
149478 U01:weakening
69062 U01:weakness
11102 U01:week
62692 U01:went
131600 U01:were
82012 U01:when
81004 U01:which
46144 U01:who
1568 U01:widely
40404 U01:will
43806 U01:with
51660 U01:without
48020 U01:wo
59878 U01:year
56336 U01:years
88508 U01:yen
28812 U02:#
29680 U02:$
17248 U02:%
34244 U02:&
136990 U02:'
21798 U02:''
143150 U02:'ll
6650 U02:'s
140420 U02:'ve
4130 U02:,
29456 U02:-LRB-
30268 U02:-RRB-
7336 U02:.
58548 U02:0.1
45584 U02:1.3
74704 U02:1.5890
75474 U02:1.5940
60354 U02:1.6
40880 U02:1.8
87486 U02:1.8470
87122 U02:1.8578
101472 U02:1.875
124054 U02:10
99918 U02:106.6
81550 U02:13
89838 U02:141.35
88620 U02:141.70
89544 U02:141.95
88354 U02:142.43
17878 U02:15
133196 U02:150
17080 U02:16
94990 U02:19
82922 U02:190
126574 U02:1980
134526 U02:1981
33236 U02:1988
28994 U02:2
100464 U02:2,664,098
31696 U02:2.2
32886 U02:2.3
92162 U02:2.4
76692 U02:2.90
75628 U02:2.9429
74998 U02:2.9495
91434 U02:20
104230 U02:233,000
124320 U02:250
29876 U02:3.2
59528 U02:3.8
125356 U02:30
104832 U02:30,000
96726 U02:31
132216 U02:35
105350 U02:35.50
105588 U02:36.50
93058 U02:366.50
91028 U02:367.30
101206 U02:38
123676 U02:4
148064 U02:4.7
94640 U02:40
99148 U02:40-a-share
152432 U02:5.3
60830 U02:5.4
133602 U02:6.4
134232 U02:8
103684 U02:8.7
94080 U02:A.P.
78344 U02:Activity
98504 U02:An
69328 U02:Analysts
71162 U02:And
148428 U02:April
139524 U02:Arthur
36708 U02:At
6426 U02:August
82488 U02:Average
26572 U02:Bank
33908 U02:Baring
128212 U02:Bernard
108752 U02:Boston
108332 U02:Both
107632 U02:Brick
25676 U02:Briscoe
35252 U02:Britain
34062 U02:Brothers
11172 U02:But
150584 U02:Calif.
139832 U02:Cambridge
130256 U02:Carriers
64386 U02:Certainly
7742 U02:Chancellor
22204 U02:Chris
121422 U02:Clifford
122066 U02:Co
34412 U02:Co.
128800 U02:Columbus
43498 U02:Combined
97524 U02:Commission
90132 U02:Commodity
28 U02:Confidence
150150 U02:Consolidated
83090 U02:Currency
139608 U02:D.
139258 U02:Delaney
118972 U02:Demand
22386 U02:Dillow
82166 U02:Dow
121898 U02:Du
93170 U02:East
75978 U02:Economists
91602 U02:Estimated
33698 U02:European
90216 U02:Exchange
8204 U02:Exchequer
86044 U02:Federal
26726 U02:Forecasts
79646 U02:Foreign
108822 U02:Freight
150220 U02:Freightways
56882 U02:Friday
134372 U02:GNP
146132 U02:Gerard
94220 U02:Green
108178 U02:Group
39858 U02:He
92736 U02:Hong
14434 U02:House
41216 U02:However
23576 U02:If
52878 U02:In
108248 U02:Inc
94430 U02:Inc.
82390 U02:Industrial
94346 U02:Industries
23352 U02:Institute
103824 U02:It
100828 U02:Its
105854 U02:John
82292 U02:Jones
33530 U02:Joshi
6034 U02:July
92806 U02:Kong
105966 U02:Kuhns
107002 U02:L.P
128282 U02:LaLonde
86212 U02:Late
8512 U02:Lawson
146762 U02:Less-than-truckload
107744 U02:Lime
93450 U02:Limited
139692 U02:Little
106246 U02:MacDonald
114632 U02:Major
14238 U02:Mansion
78204 U02:Market
139958 U02:Mass.
146524 U02:Massachusetts
146202 U02:McCullough
52248 U02:Meanwhile
150374 U02:Menlo
102186 U02:Mexico
26026 U02:Midland
102368 U02:Mo.
89124 U02:Monday
26096 U02:Montagu
41454 U02:Mr.
50120 U02:Nevertheless
86380 U02:New
8358 U02:Nigel
50792 U02:No
23128 U02:Nomura
144578 U02:Not
141400 U02:Now
81438 U02:Oct.
33110 U02:October
122542 U02:Ohio
89992 U02:On
123942 U02:Only
26642 U02:PLC
150444 U02:Park
93352 U02:Partners
93534 U02:Partnership
121982 U02:Pont
149058 U02:Railroad-rate
23240 U02:Research
86128 U02:Reserve
106162 U02:Robert
93254 U02:Rock
33446 U02:Sanjay
121492 U02:Sayre
97314 U02:Securities
3892 U02:September
122150 U02:Shippers
25592 U02:Simon
122626 U02:State
72730 U02:Sterling
146692 U02:Technology
116424 U02:That
19796 U02:The
145390 U02:There
15162 U02:This
14952 U02:Thursday
88956 U02:Tokyo
138460 U02:Transport
111706 U02:Trucking
22736 U02:U.K.
85960 U02:U.S.
122710 U02:University
140280 U02:We
107506 U02:Westwood
86450 U02:York
105742 U02:York-based
143066 U02:You
136360 U02:`
19614 U02:``
5572 U02:a
79492 U02:abated
137480 U02:able
37870 U02:about
118734 U02:abroad
30744 U02:account
93940 U02:acquire
49798 U02:adjusting
48216 U02:advance
44562 U02:after
65562 U02:again
59892 U02:ago
69440 U02:agree
96278 U02:agreement
112126 U02:air-freight
140742 U02:all
68138 U02:allow
72982 U02:already
46158 U02:also
24962 U02:an
11354 U02:analysts
6216 U02:and
13454 U02:announce
112462 U02:announced
132412 U02:annual
2352 U02:another
13552 U02:any
97706 U02:approval
20622 U02:are
45206 U02:as
23002 U02:at
96936 U02:attached
67634 U02:audience
147854 U02:away
25102 U02:awful
84420 U02:back
20314 U02:bad
77742 U02:balance
130032 U02:bargain
16576 U02:base
108598 U02:based
24794 U02:be
48566 U02:because
12404 U02:been
49644 U02:before
129486 U02:began
79982 U02:begun
16030 U02:being
41916 U02:believes
76594 U02:below
141036 U02:benefits
116634 U02:big
29218 U02:billion
95494 U02:board
36400 U02:boost
103250 U02:boosted
66024 U02:both
110362 U02:bottoming
105084 U02:bought
117488 U02:bright
127624 U02:broad-based
47530 U02:bullish
27426 U02:but
12698 U02:by
53522 U02:can
39396 U02:capital
150794 U02:carrier
142030 U02:carriers
147028 U02:carry
119182 U02:caught
91518 U02:cents
119504 U02:certain
12950 U02:chancellor
116704 U02:change
88032 U02:changing
64918 U02:clear
85358 U02:close
101052 U02:closed
52724 U02:clouded
83510 U02:coming
98798 U02:comment
8960 U02:commitment
104496 U02:common
112238 U02:companies
99582 U02:company
125202 U02:compared
60102 U02:compares
148722 U02:competing
109830 U02:competition
118580 U02:competitive
153132 U02:competitors
79170 U02:concerns
73640 U02:confidence
139384 U02:consultant
39116 U02:consumer
97874 U02:contingent
38780 U02:continued
106344 U02:control
138866 U02:cost
113848 U02:costs
24612 U02:could
47768 U02:currency
17724 U02:current
100184 U02:currently
132048 U02:cut
144004 U02:cutting
28056 U02:data
86618 U02:day
79772 U02:dealers
109620 U02:decade
44828 U02:decline
74312 U02:declined
109032 U02:declining
124992 U02:decrease
18312 U02:defend
30422 U02:deficit
7098 U02:deficits
90720 U02:delivery
114254 U02:demand
110082 U02:deregulation
135744 U02:directly
121632 U02:director
147742 U02:discounted
151032 U02:discounting
80136 U02:distance
123466 U02:distribution
2828 U02:dive
57022 U02:do
66430 U02:does
78512 U02:dollar
21406 U02:down
127372 U02:dramatic
43316 U02:drop
4340 U02:due
147434 U02:each
131614 U02:eager
54432 U02:earlier
92568 U02:early
85820 U02:easing
84714 U02:economic
22876 U02:economist
18592 U02:economists
52570 U02:economy
55062 U02:effect
130858 U02:efficiently
56084 U02:eight
129766 U02:enabled
66164 U02:ensure
130634 U02:equipment
79366 U02:equities
12544 U02:eroded
47208 U02:even
144690 U02:everyone
49364 U02:evidence
19054 U02:exchange
27818 U02:expect
1582 U02:expected
56518 U02:expenditure
36554 U02:exports
85456 U02:eye
5180 U02:fail
13202 U02:failure
37562 U02:fairly
113036 U02:fall
76384 U02:falls
115514 U02:fast
116032 U02:faster
63588 U02:fears
27566 U02:few
148848 U02:fiercely
20482 U02:figure
3430 U02:figures
97146 U02:filing
131852 U02:fill
98392 U02:financing
9408 U02:firm
60648 U02:first
51744 U02:flat
84266 U02:focus
3654 U02:for
16184 U02:forced
46340 U02:forecasts
18900 U02:foreign
10416 U02:freefall
114478 U02:freight
141246 U02:freight-cost
141820 U02:freight-rate
123074 U02:freight-transport
5880 U02:from
111482 U02:fuel
84854 U02:fundamentals
49252 U02:further
78764 U02:gains
31892 U02:gap
106736 U02:general
38598 U02:given
51282 U02:go
90482 U02:gold
144970 U02:good
39550 U02:goods
140588 U02:gotten
15890 U02:government
133756 U02:gross
125678 U02:had
77364 U02:halt
88130 U02:hands
9884 U02:has
117264 U02:haulage
112350 U02:have
37226 U02:he
21000 U02:heavily
10024 U02:helped
117922 U02:helping
38962 U02:high
70840 U02:higher
55678 U02:highest
14070 U02:his
69846 U02:holding
104090 U02:holds
72604 U02:hollow
3024 U02:if
53900 U02:impact
148274 U02:implemented
64064 U02:import
38276 U02:imports
5768 U02:improvement
294 U02:in
104720 U02:including
16450 U02:increase
15442 U02:increased
112672 U02:increases
107926 U02:indirect
35588 U02:industry
134806 U02:inefficiency
111594 U02:inflation
39704 U02:inflows
132580 U02:inter-city
54180 U02:interest
51394 U02:into
48720 U02:investors
1078 U02:is
64764 U02:it
84112 U02:its
36050 U02:itself
149786 U02:keen
85120 U02:keeping
142982 U02:labor
73514 U02:lack
14784 U02:last
75824 U02:late
96488 U02:later
43078 U02:lead
131082 U02:leading
43988 U02:least
146342 U02:lecturer
150724 U02:less-than-truckload
95102 U02:letter
18144 U02:level
149604 U02:levels
92022 U02:light
135478 U02:likely
107170 U02:limited
45290 U02:little
121758 U02:logistics
137634 U02:look
125818 U02:looked
25186 U02:lot
64624 U02:made
72268 U02:make
102522 U02:maker
35476 U02:manufacturing
28434 U02:marked
19208 U02:market
75138 U02:marks
42560 U02:material
115878 U02:maybe
13804 U02:measures
96208 U02:merger
92316 U02:million
70098 U02:moment
9562 U02:monetary
54768 U02:month
63896 U02:more
109298 U02:most
120218 U02:move
48398 U02:much
48034 U02:n't
40418 U02:narrow
101696 U02:national
6874 U02:near-record
65758 U02:necessary
13636 U02:new
113358 U02:next
138376 U02:nine
34944 U02:no
68026 U02:not
25508 U02:noted
103950 U02:now
24248 U02:number
98112 U02:obtaining
144256 U02:occurred
7882 U02:of
95746 U02:offer
98630 U02:official
138768 U02:offsetting
21168 U02:on
50946 U02:one
32662 U02:only
89320 U02:opened
138614 U02:opportunity
113148 U02:or
70182 U02:other
91238 U02:ounce
92442 U02:ounces
85554 U02:out
38066 U02:outlook
100716 U02:outstanding
10696 U02:over
101822 U02:over-the-counter
52402 U02:overall
131292 U02:overcapacity
106834 U02:partner
107296 U02:partnership
136598 U02:party
10892 U02:past
142408 U02:pay
127932 U02:perceived
37730 U02:pessimistic
66654 U02:place
151802 U02:plans
82600 U02:plunged
83006 U02:points
9716 U02:policy
124516 U02:polled
72030 U02:popularity
51842 U02:position
49952 U02:positions
78638 U02:posted
826 U02:pound
83244 U02:predict
81144 U02:preoccupied
65366 U02:prepared
25340 U02:pressure
10234 U02:prevent
144382 U02:previously
143906 U02:price
133882 U02:product
117768 U02:productivity
102760 U02:products
128548 U02:professor
70434 U02:promise
99288 U02:proposal
93730 U02:proposed
70714 U02:pushed
58870 U02:quarter
57834 U02:quickly
79002 U02:quiet
61782 U02:quite
86898 U02:quoted
132804 U02:rail
149492 U02:rail-traffic
128982 U02:railroads
152068 U02:raise
27076 U02:range
68852 U02:rate
16730 U02:rates
62958 U02:rather
42420 U02:raw
141736 U02:real
44324 U02:rebound
116844 U02:recent
122374 U02:recently
11578 U02:reckon
39984 U02:reckons
143598 U02:recoup
63476 U02:reduce
42210 U02:reduction
141316 U02:reductions
135660 U02:reflected
113582 U02:reflecting
102676 U02:refractory
32018 U02:registered
4704 U02:release
56742 U02:released
37380 U02:remains
67382 U02:reminded
142128 U02:replace
30870 U02:reported
8806 U02:restated
118076 U02:restrain
149212 U02:restrained
68334 U02:rigor
54054 U02:rise
64232 U02:rises
135240 U02:rising
15694 U02:risk
19978 U02:risks
58408 U02:rose
21994 U02:said
36918 U02:same
98266 U02:satisfactory
137886 U02:savings
19446 U02:say
136248 U02:saying
112826 U02:scheduled
59010 U02:second
49140 U02:see
139104 U02:segments
22624 U02:senior
62818 U02:services
90790 U02:settled
147280 U02:several
94766 U02:share
100590 U02:shares
2590 U02:sharp
83986 U02:shift
114716 U02:shippers
111888 U02:shipping
63364 U02:should
5460 U02:show
73122 U02:showing
21490 U02:side
35042 U02:sign
96068 U02:signing
73374 U02:signs
153342 U02:similar
81354 U02:since
120988 U02:slightly
53438 U02:slowdown
57596 U02:slowing
106638 U02:sole
44170 U02:some
72492 U02:sound
14616 U02:speech
58268 U02:spending
117572 U02:spot
109928 U02:spurred
134890 U02:squeezed
151438 U02:stabilize
103390 U02:stake
120064 U02:starting
10612 U02:sterling
61642 U02:still
80584 U02:stock
42714 U02:stockbuilding
123298 U02:storage
61922 U02:strong
95886 U02:subject
107996 U02:subsidiary
5670 U02:substantial
127092 U02:such
57246 U02:suggest
76076 U02:suggested
62356 U02:suggestions
119364 U02:supply
11998 U02:support
122262 U02:surveyed
72198 U02:swiftly
135100 U02:system
2100 U02:take
54936 U02:takes
63098 U02:than
35154 U02:that
560 U02:the
17570 U02:their
23744 U02:there
71414 U02:they
58800 U02:third
54600 U02:this
111202 U02:threatening
114128 U02:tightened
36988 U02:time
145054 U02:times
1848 U02:to
4858 U02:tomorrow
32508 U02:topped
3234 U02:trade
74074 U02:trading
147560 U02:trailer
35882 U02:transforming
114548 U02:transport
119784 U02:transportation
137802 U02:transportation-cost
132664 U02:truck
129164 U02:trucking
149968 U02:trucks
143402 U02:try
49532 U02:turnaround
110726 U02:turning
153006 U02:two
119588 U02:types
77910 U02:unchanged
11802 U02:underlying
68614 U02:undermined
44744 U02:unexpected
26376 U02:unit
59388 U02:up
97972 U02:upon
127722 U02:upturn
110880 U02:upward
130466 U02:use
99414 U02:values
20804 U02:very
80514 U02:volatile
91700 U02:volume
48958 U02:want
71568 U02:warn
53186 U02:warned
46942 U02:warns
59248 U02:was
126770 U02:we
149380 U02:weakening
68950 U02:weakness
11004 U02:week
62622 U02:went
131516 U02:were
81858 U02:when
80864 U02:which
45976 U02:who
1330 U02:widely
40292 U02:will
43638 U02:with
51604 U02:without
47880 U02:wo
59780 U02:year
56224 U02:years
88438 U02:yen
28686 U03:#
29470 U03:$
17094 U03:%
34076 U03:&
136878 U03:'
21630 U03:''
143080 U03:'ll
6440 U03:'s
140294 U03:'ve
3906 U03:,
29232 U03:-LRB-
30086 U03:-RRB-
7112 U03:.
58422 U03:0.1
45500 U03:1.3
74578 U03:1.5890
75390 U03:1.5940
60270 U03:1.6
40782 U03:1.8
87402 U03:1.8470
87024 U03:1.8578
101416 U03:1.875
123956 U03:10
99834 U03:106.6
81452 U03:13
89796 U03:141.35
88592 U03:141.70
89502 U03:141.95
88256 U03:142.43
17738 U03:15
133154 U03:150
16912 U03:16
94906 U03:19
82824 U03:190
126518 U03:1980
134456 U03:1981
33124 U03:1988
28826 U03:2
100324 U03:2,664,098
31640 U03:2.2
32858 U03:2.3
92036 U03:2.4
76608 U03:2.90
75572 U03:2.9429
74858 U03:2.9495
91378 U03:20
104104 U03:233,000
124264 U03:250
29694 U03:3.2
59402 U03:3.8
125300 U03:30
104734 U03:30,000
96670 U03:31
132174 U03:35
105294 U03:35.50
105532 U03:36.50
93016 U03:366.50
90944 U03:367.30
101164 U03:38
123620 U03:4
147980 U03:4.7
94584 U03:40
99022 U03:40-a-share
152320 U03:5.3
60774 U03:5.4
133518 U03:6.4
134148 U03:8
103600 U03:8.7
93954 U03:A.P.
78218 U03:Activity
148358 U03:April
139454 U03:Arthur
6230 U03:August
82404 U03:Average
26516 U03:Bank
33824 U03:Baring
128170 U03:Bernard
108682 U03:Boston
107520 U03:Brick
25606 U03:Briscoe
35168 U03:Britain
33922 U03:Brothers
150528 U03:Calif.
139804 U03:Cambridge
22008 U03:Chris
121380 U03:Clifford
121996 U03:Co
34258 U03:Co.
128758 U03:Columbus
97468 U03:Commission
90062 U03:Commodity
150094 U03:Consolidated
139538 U03:D.
139216 U03:Delaney
118902 U03:Demand
22218 U03:Dillow
82026 U03:Dow
121828 U03:Du
95578 U03:East
33628 U03:European
90146 U03:Exchange
8050 U03:Exchequer
85974 U03:Federal
150164 U03:Freightways
56756 U03:Friday
134344 U03:GNP
146090 U03:Gerard
94094 U03:Green
108122 U03:Group
92680 U03:Hong
14252 U03:House
23464 U03:If
108192 U03:Inc
94360 U03:Inc.
82306 U03:Industrial
94234 U03:Industries
23254 U03:Institute
105756 U03:John
82180 U03:Jones
33460 U03:Joshi
5894 U03:July
92750 U03:Kong
105868 U03:Kuhns
106974 U03:L.P
128226 U03:LaLonde
8372 U03:Lawson
107646 U03:Lime
93366 U03:Limited
139622 U03:Little
106176 U03:MacDonald
14084 U03:Mansion
78092 U03:Market
139902 U03:Mass.
146482 U03:Massachusetts
146146 U03:McCullough
150332 U03:Menlo
102116 U03:Mexico
25970 U03:Midland
102284 U03:Mo.
89054 U03:Monday
26040 U03:Montagu
41342 U03:Mr.
86338 U03:New
8218 U03:Nigel
50652 U03:No
23016 U03:Nomura
81368 U03:Oct.
33026 U03:October
122472 U03:Ohio
26586 U03:PLC
150388 U03:Park
93268 U03:Partners
93464 U03:Partnership
121912 U03:Pont
23142 U03:Research
86058 U03:Reserve
106078 U03:Robert
93184 U03:Rock
121436 U03:Sayre
97258 U03:Securities
3668 U03:September
135982 U03:Shippers
25522 U03:Simon
122556 U03:State
146636 U03:Technology
19628 U03:The
145320 U03:There
126224 U03:This
14798 U03:Thursday
88900 U03:Tokyo
22638 U03:U.K.
85890 U03:U.S.
122640 U03:University
140154 U03:We
107394 U03:Westwood
86394 U03:York
105672 U03:York-based
7350 U03:_B+1
136262 U03:`
50484 U03:``
5474 U03:a
79380 U03:abated
137424 U03:able
37744 U03:about
118594 U03:abroad
30660 U03:account
93828 U03:acquire
49658 U03:adjusting
48048 U03:advance
44506 U03:after
65520 U03:again
59794 U03:ago
69342 U03:agree
96222 U03:agreement
112014 U03:air-freight
140602 U03:all
68040 U03:allow
72842 U03:already
45990 U03:also
24808 U03:an
11186 U03:analysts
6048 U03:and
13342 U03:announce
112364 U03:announced
132370 U03:annual
2114 U03:another
13468 U03:any
97664 U03:approval
20496 U03:are
45150 U03:as
22890 U03:at
96866 U03:attached
67508 U03:audience
147756 U03:away
24976 U03:awful
84280 U03:back
20272 U03:bad
77714 U03:balance
129976 U03:bargain
16464 U03:base
108528 U03:based
24626 U03:be
48412 U03:because
12306 U03:been
49546 U03:before
129374 U03:began
79940 U03:begun
15904 U03:being
41790 U03:believes
76482 U03:below
140910 U03:benefits
116564 U03:big
29008 U03:billion
95438 U03:board
36232 U03:boost
103180 U03:boosted
65884 U03:both
110264 U03:bottoming
104972 U03:bought
117432 U03:bright
127512 U03:broad-based
47446 U03:bullish
27300 U03:but
12558 U03:by
53452 U03:can
39270 U03:capital
150738 U03:carrier
141960 U03:carriers
146944 U03:carry
119084 U03:caught
91448 U03:cents
119434 U03:certain
12838 U03:chancellor
116648 U03:change
87948 U03:changing
64778 U03:clear
85246 U03:close
100954 U03:closed
52668 U03:clouded
83440 U03:coming
98756 U03:comment
8820 U03:commitment
104426 U03:common
112140 U03:companies
99512 U03:company
125104 U03:compared
60046 U03:compares
148610 U03:competing
109746 U03:competition
118440 U03:competitive
153020 U03:competitors
79128 U03:concerns
73584 U03:confidence
139356 U03:consultant
38976 U03:consumer
97818 U03:contingent
38612 U03:continued
106260 U03:control
138782 U03:cost
113722 U03:costs
24458 U03:could
47726 U03:currency
17584 U03:current
100114 U03:currently
132020 U03:cut
143920 U03:cutting
27944 U03:data
86548 U03:day
79716 U03:dealers
109550 U03:decade
44758 U03:decline
74186 U03:declined
108962 U03:declining
124922 U03:decrease
18242 U03:defend
30282 U03:deficit
6888 U03:deficits
90664 U03:delivery
114142 U03:demand
110026 U03:deregulation
135674 U03:directly
121576 U03:director
147644 U03:discounted
150962 U03:discounting
80052 U03:distance
123396 U03:distribution
2604 U03:dive
56896 U03:do
66360 U03:does
78456 U03:dollar
21308 U03:down
127232 U03:dramatic
43260 U03:drop
4144 U03:due
147392 U03:each
131530 U03:eager
54292 U03:earlier
92540 U03:early
85792 U03:easing
84574 U03:economic
22750 U03:economist
18480 U03:economists
52542 U03:economy
54950 U03:effect
130746 U03:efficiently
55944 U03:eight
129696 U03:enabled
66038 U03:ensure
130564 U03:equipment
79254 U03:equities
12418 U03:eroded
47082 U03:even
144592 U03:everyone
49266 U03:evidence
18914 U03:exchange
27706 U03:expect
1344 U03:expected
56448 U03:expenditure
36414 U03:exports
85372 U03:eye
5026 U03:fail
13076 U03:failure
37394 U03:fairly
112966 U03:fall
76342 U03:falls
115430 U03:fast
115892 U03:faster
63490 U03:fears
27440 U03:few
148736 U03:fiercely
20384 U03:figure
3248 U03:figures
97104 U03:filing
131740 U03:fill
98280 U03:financing
9268 U03:firm
60620 U03:first
51674 U03:flat
84126 U03:focus
3444 U03:for
16044 U03:forced
46172 U03:forecasts
18746 U03:foreign
10318 U03:freefall
114380 U03:freight
141204 U03:freight-cost
141750 U03:freight-rate
122976 U03:freight-transport
5782 U03:from
111356 U03:fuel
84728 U03:fundamentals
49154 U03:further
78652 U03:gains
31780 U03:gap
106652 U03:general
38430 U03:given
51212 U03:go
90398 U03:gold
144914 U03:good
39410 U03:goods
140434 U03:gotten
15820 U03:government
133728 U03:gross
125552 U03:had
77280 U03:halt
88046 U03:hands
9730 U03:has
117152 U03:haulage
112252 U03:have
37100 U03:he
20818 U03:heavily
9898 U03:helped
117852 U03:helping
38794 U03:high
70728 U03:higher
55552 U03:highest
13930 U03:his
69762 U03:holding
103964 U03:holds
72506 U03:hollow
2842 U03:if
53858 U03:impact
148218 U03:implemented
63910 U03:import
38164 U03:imports
5684 U03:improvement
42 U03:in
104636 U03:including
16324 U03:increase
15302 U03:increased
112588 U03:increases
107870 U03:indirect
35490 U03:industry
134750 U03:inefficiency
111496 U03:inflation
39564 U03:inflows
132496 U03:inter-city
54124 U03:interest
51296 U03:into
48580 U03:investors
840 U03:is
64638 U03:it
84000 U03:its
35896 U03:itself
149716 U03:keen
85008 U03:keeping
142912 U03:labor
73486 U03:lack
14630 U03:last
75726 U03:late
96418 U03:later
43022 U03:lead
130984 U03:leading
43820 U03:least
146286 U03:lecturer
150654 U03:less-than-truckload
95004 U03:letter
18032 U03:level
149506 U03:levels
91910 U03:light
135408 U03:likely
107114 U03:limited
45220 U03:little
121702 U03:logistics
137564 U03:look
125692 U03:looked
25116 U03:lot
64540 U03:made
72212 U03:make
102452 U03:maker
35364 U03:manufacturing
28336 U03:marked
19068 U03:market
75012 U03:marks
42434 U03:material
115738 U03:maybe
13734 U03:measures
96166 U03:merger
92176 U03:million
70042 U03:moment
9422 U03:monetary
54614 U03:month
63742 U03:more
109158 U03:most
120148 U03:move
48230 U03:much
47894 U03:n't
40306 U03:narrow
101598 U03:national
6664 U03:near-record
65660 U03:necessary
13566 U03:new
113274 U03:next
138320 U03:nine
34860 U03:no
67928 U03:not
25466 U03:noted
103838 U03:now
24220 U03:number
97986 U03:obtaining
144130 U03:occurred
7756 U03:of
95718 U03:offer
98602 U03:official
138684 U03:offsetting
21014 U03:on
50806 U03:one
32522 U03:only
89292 U03:opened
138586 U03:opportunity
113050 U03:or
70112 U03:other
91140 U03:ounce
92330 U03:ounces
85470 U03:out
37996 U03:outlook
100604 U03:outstanding
10626 U03:over
101710 U03:over-the-counter
52332 U03:overall
131194 U03:overcapacity
106750 U03:partner
107268 U03:partnership
136500 U03:party
10808 U03:past
142324 U03:pay
127834 U03:perceived
37576 U03:pessimistic
66542 U03:place
151718 U03:plans
82502 U03:plunged
82936 U03:points
9576 U03:policy
124418 U03:polled
71974 U03:popularity
51758 U03:position
49812 U03:positions
78526 U03:posted
574 U03:pound
83174 U03:predict
81018 U03:preoccupied
65282 U03:prepared
25270 U03:pressure
10150 U03:prevent
144270 U03:previously
143836 U03:price
133826 U03:product
117712 U03:productivity
102690 U03:products
128464 U03:professor
70392 U03:promise
99162 U03:proposal
93674 U03:proposed
70630 U03:pushed
58814 U03:quarter
57708 U03:quickly
78904 U03:quiet
61656 U03:quite
86814 U03:quoted
132748 U03:rail
149394 U03:rail-traffic
128926 U03:railroads
151942 U03:raise
27020 U03:range
68768 U03:rate
16590 U03:rates
62832 U03:rather
42308 U03:raw
141680 U03:real
44184 U03:rebound
116788 U03:recent
122276 U03:recently
11368 U03:reckon
39872 U03:reckons
143514 U03:recoup
63378 U03:reduce
42140 U03:reduction
141260 U03:reductions
135604 U03:reflected
113498 U03:reflecting
102592 U03:refractory
31906 U03:registered
4536 U03:release
56630 U03:released
37240 U03:remains
67312 U03:reminded
142044 U03:replace
30758 U03:reported
8666 U03:restated
118006 U03:restrain
149184 U03:restrained
68292 U03:rigor
54012 U03:rise
64078 U03:rises
135170 U03:rising
15582 U03:risk
19810 U03:risks
58282 U03:rose
21812 U03:said
36820 U03:same
98126 U03:satisfactory
137816 U03:savings
19334 U03:say
136136 U03:saying
112756 U03:scheduled
58982 U03:second
49056 U03:see
139062 U03:segments
22526 U03:senior
62706 U03:services
90734 U03:settled
147238 U03:several
94710 U03:share
100478 U03:shares
2366 U03:sharp
83902 U03:shift
114646 U03:shippers
111790 U03:shipping
63294 U03:should
5334 U03:show
72996 U03:showing
21420 U03:side
34958 U03:sign
96026 U03:signing
73276 U03:signs
153300 U03:similar
81298 U03:since
120876 U03:slightly
53368 U03:slowdown
57512 U03:slowing
106582 U03:sole
44002 U03:some
72408 U03:sound
14448 U03:speech
58184 U03:spending
117502 U03:spot
109844 U03:spurred
134820 U03:squeezed
151326 U03:stabilize
103334 U03:stake
120022 U03:starting
10514 U03:sterling
61516 U03:still
80528 U03:stock
42574 U03:stockbuilding
123200 U03:storage
61796 U03:strong
95816 U03:subject
107940 U03:subsidiary
5586 U03:substantial
126980 U03:such
57148 U03:suggest
75992 U03:suggested
62258 U03:suggestions
119336 U03:supply
11816 U03:support
122164 U03:surveyed
72114 U03:swiftly
135058 U03:system
1862 U03:take
54782 U03:takes
62972 U03:than
35056 U03:that
308 U03:the
17416 U03:their
23590 U03:there
71274 U03:they
58758 U03:third
54446 U03:this
111048 U03:threatening
113988 U03:tightened
36932 U03:time
144984 U03:times
1596 U03:to
4718 U03:tomorrow
32368 U03:topped
3038 U03:trade
73990 U03:trading
147504 U03:trailer
35728 U03:transforming
114492 U03:transport
119742 U03:transportation
137718 U03:transportation-cost
132594 U03:truck
129080 U03:trucking
149926 U03:trucks
143318 U03:try
49490 U03:turnaround
110600 U03:turning
152908 U03:two
119518 U03:types
77854 U03:unchanged
11592 U03:underlying
68558 U03:undermined
44688 U03:unexpected
26292 U03:unit
59262 U03:up
97888 U03:upon
127638 U03:upturn
110740 U03:upward
130368 U03:use
99302 U03:values
20636 U03:very
80444 U03:volatile
91616 U03:volume
48860 U03:want
71428 U03:warn
53130 U03:warned
46858 U03:warns
59150 U03:was
126672 U03:we
149296 U03:weakening
68866 U03:weakness
10906 U03:week
62580 U03:went
131404 U03:were
81704 U03:when
80752 U03:which
45864 U03:who
1092 U03:widely
40194 U03:will
43512 U03:with
51576 U03:without
47782 U03:wo
59696 U03:year
56098 U03:years
88368 U03:yen
28602 U04:#
29246 U04:$
16926 U04:%
33936 U04:&
136780 U04:'
21504 U04:''
6244 U04:'s
140168 U04:'ve
3682 U04:,
29022 U04:-LRB-
29890 U04:-RRB-
6902 U04:.
58296 U04:0.1
45402 U04:1.3
74452 U04:1.5890
75278 U04:1.5940
60172 U04:1.6
40670 U04:1.8
87304 U04:1.8470
86912 U04:1.8578
101360 U04:1.875
99736 U04:106.6
81382 U04:13
89754 U04:141.35
88564 U04:141.70
89446 U04:141.95
88144 U04:142.43
17598 U04:15
133084 U04:150
16744 U04:16
94850 U04:19
82712 U04:190
126476 U04:1980
134386 U04:1981
33040 U04:1988
28700 U04:2
100198 U04:2,664,098
31556 U04:2.2
32844 U04:2.3
91924 U04:2.4
76496 U04:2.90
75488 U04:2.9429
74718 U04:2.9495
91322 U04:20
103978 U04:233,000
124236 U04:250
29484 U04:3.2
59276 U04:3.8
125216 U04:30
104650 U04:30,000
96586 U04:31
132118 U04:35
105266 U04:35.50
105448 U04:36.50
92988 U04:366.50
90874 U04:367.30
101122 U04:38
123578 U04:4
147868 U04:4.7
94514 U04:40
98938 U04:40-a-share
152194 U04:5.3
60732 U04:5.4
133420 U04:6.4
134050 U04:8
103530 U04:8.7
93842 U04:A.P.
78106 U04:Activity
148288 U04:April
139398 U04:Arthur
6062 U04:August
82320 U04:Average
26460 U04:Bank
33768 U04:Baring
128142 U04:Bernard
108612 U04:Boston
107408 U04:Brick
25536 U04:Briscoe
35070 U04:Britain
33838 U04:Brothers
150458 U04:Calif.
139762 U04:Cambridge
21826 U04:Chris
121366 U04:Clifford
121926 U04:Co
34090 U04:Co.
128730 U04:Columbus
97384 U04:Commission
90006 U04:Commodity
150052 U04:Consolidated
139468 U04:D.
22022 U04:Dillow
81872 U04:Dow
121772 U04:Du
95508 U04:East
33544 U04:European
90076 U04:Exchange
7896 U04:Exchequer
85904 U04:Federal
150108 U04:Freightways
56644 U04:Friday
134302 U04:GNP
146076 U04:Gerard
93968 U04:Green
108066 U04:Group
92624 U04:Hong
14098 U04:House
108136 U04:Inc
94248 U04:Inc.
82194 U04:Industrial
94108 U04:Industries
23156 U04:Institute
105686 U04:John
82040 U04:Jones
5796 U04:July
92694 U04:Kong
105770 U04:Kuhns
106960 U04:L.P
128184 U04:LaLonde
8232 U04:Lawson
107534 U04:Lime
93282 U04:Limited
139552 U04:Little
106092 U04:MacDonald
13944 U04:Mansion
78008 U04:Market
139846 U04:Mass.
146440 U04:Massachusetts
146104 U04:McCullough
150318 U04:Menlo
102060 U04:Mexico
25914 U04:Midland
102200 U04:Mo.
88970 U04:Monday
25984 U04:Montagu
41230 U04:Mr.
86282 U04:New
8064 U04:Nigel
50498 U04:No
22904 U04:Nomura
81312 U04:Oct.
32984 U04:October
122388 U04:Ohio
26530 U04:PLC
150346 U04:Park
93198 U04:Partners
93380 U04:Partnership
121842 U04:Pont
23030 U04:Research
85988 U04:Reserve
105980 U04:Robert
95592 U04:Rock
121394 U04:Sayre
97202 U04:Securities
3458 U04:September
25480 U04:Simon
122486 U04:State
146580 U04:Technology
14644 U04:Thursday
89670 U04:Tokyo
22540 U04:U.K.
85834 U04:U.S.
122570 U04:University
140070 U04:We
107310 U04:Westwood
86352 U04:York
7126 U04:_B+1
7364 U04:_B+2
136150 U04:`
50344 U04:``
5348 U04:a
79268 U04:abated
137382 U04:able
37590 U04:about
118454 U04:abroad
30632 U04:account
93744 U04:acquire
49560 U04:adjusting
47908 U04:advance
44436 U04:after
65478 U04:again
59710 U04:ago
96180 U04:agreement
111902 U04:air-freight
140448 U04:all
67942 U04:allow
72744 U04:already
45878 U04:also
24640 U04:an
19082 U04:analysts
5908 U04:and
13216 U04:announce
112266 U04:announced
132328 U04:annual
1876 U04:another
13356 U04:any
97636 U04:approval
20398 U04:are
45122 U04:as
22764 U04:at
96810 U04:attached
67396 U04:audience
147658 U04:away
24822 U04:awful
84140 U04:back
20230 U04:bad
77672 U04:balance
129878 U04:bargain
16338 U04:base
108486 U04:based
24472 U04:be
48244 U04:because
12250 U04:been
49504 U04:before
129262 U04:began
79898 U04:begun
15834 U04:being
41678 U04:believes
76398 U04:below
140756 U04:benefits
116494 U04:big
28840 U04:billion
95382 U04:board
36064 U04:boost
103110 U04:boosted
65772 U04:both
110166 U04:bottoming
104846 U04:bought
117362 U04:bright
127386 U04:broad-based
47390 U04:bullish
27174 U04:but
12432 U04:by
53382 U04:can
39130 U04:capital
150668 U04:carrier
141904 U04:carriers
146874 U04:carry
118986 U04:caught
91392 U04:cents
119378 U04:certain
12712 U04:chancellor
116578 U04:change
87878 U04:changing
64652 U04:clear
85134 U04:close
100842 U04:closed
52626 U04:clouded
83370 U04:coming
98700 U04:comment
8680 U04:commitment
104342 U04:common
112028 U04:companies
99428 U04:company
125006 U04:compared
148526 U04:competing
109676 U04:competition
118328 U04:competitive
152922 U04:competitors
79072 U04:concerns
73528 U04:confidence
139314 U04:consultant
38808 U04:consumer
97762 U04:contingent
38444 U04:continued
106190 U04:control
138698 U04:cost
113596 U04:costs
24332 U04:could
47698 U04:currency
17430 U04:current
100058 U04:currently
143850 U04:cutting
27832 U04:data
86464 U04:day
79660 U04:dealers
109438 U04:decade
44702 U04:decline
74088 U04:declined
108892 U04:declining
124866 U04:decrease
18158 U04:defend
30100 U04:deficit
6678 U04:deficits
90580 U04:delivery
114002 U04:demand
109942 U04:deregulation
135618 U04:directly
121506 U04:director
147574 U04:discounted
150906 U04:discounting
79996 U04:distance
123312 U04:distribution
2380 U04:dive
56770 U04:do
66332 U04:does
86688 U04:dollar
21182 U04:down
127106 U04:dramatic
43204 U04:drop
3920 U04:due
147336 U04:each
131418 U04:eager
54194 U04:earlier
113064 U04:early
85778 U04:easing
84434 U04:economic
22652 U04:economist
18410 U04:economists
52514 U04:economy
54796 U04:effect
130648 U04:efficiently
55804 U04:eight
129598 U04:enabled
65898 U04:ensure
130480 U04:equipment
79184 U04:equities
12320 U04:eroded
46956 U04:even
49168 U04:evidence
18760 U04:exchange
27580 U04:expect
1106 U04:expected
56392 U04:expenditure
36246 U04:exports
85260 U04:eye
4872 U04:fail
12964 U04:failure
37254 U04:fairly
112896 U04:fall
76314 U04:falls
115346 U04:fast
115752 U04:faster
63392 U04:fears
27314 U04:few
148624 U04:fiercely
20328 U04:figure
3052 U04:figures
97034 U04:filing
131628 U04:fill
98140 U04:financing
9128 U04:firm
60592 U04:first
51618 U04:flat
84014 U04:focus
3262 U04:for
15918 U04:forced
46004 U04:forecasts
18606 U04:foreign
10248 U04:freefall
114268 U04:freight
141176 U04:freight-cost
141694 U04:freight-rate
122892 U04:freight-transport
5698 U04:from
111216 U04:fuel
84588 U04:fundamentals
49070 U04:further
78540 U04:gains
31710 U04:gap
106596 U04:general
38290 U04:given
51170 U04:go
90342 U04:gold
144886 U04:good
39284 U04:goods
140308 U04:gotten
15778 U04:government
133686 U04:gross
125440 U04:had
77196 U04:halt
87962 U04:hands
9590 U04:has
117026 U04:haulage
112154 U04:have
37002 U04:he
20650 U04:heavily
9744 U04:helped
117782 U04:helping
38626 U04:high
70644 U04:higher
55440 U04:highest
13818 U04:his
69664 U04:holding
103852 U04:holds
72422 U04:hollow
2618 U04:if
53788 U04:impact
148176 U04:implemented
63756 U04:import
38080 U04:imports
5600 U04:improvement
10332 U04:in
104566 U04:including
16198 U04:increase
15176 U04:increased
112476 U04:increases
107842 U04:indirect
35378 U04:industry
134736 U04:inefficiency
111370 U04:inflation
39424 U04:inflows
132426 U04:inter-city
54068 U04:interest
51226 U04:into
48426 U04:investors
588 U04:is
64554 U04:it
83916 U04:its
35742 U04:itself
149618 U04:keen
84868 U04:keeping
142828 U04:labor
73444 U04:lack
14462 U04:last
75642 U04:late
96348 U04:later
42938 U04:lead
130872 U04:leading
43652 U04:least
146216 U04:lecturer
150598 U04:less-than-truckload
94920 U04:letter
17892 U04:level
149408 U04:levels
91812 U04:light
135324 U04:likely
107072 U04:limited
45164 U04:little
121646 U04:logistics
137494 U04:look
125566 U04:looked
24990 U04:lot
64512 U04:made
72128 U04:make
102382 U04:maker
35266 U04:manufacturing
28266 U04:marked
18928 U04:market
74872 U04:marks
42322 U04:material
115654 U04:maybe
13650 U04:measures
96124 U04:merger
92050 U04:million
70000 U04:moment
9282 U04:monetary
54460 U04:month
63602 U04:more
109046 U04:most
120078 U04:move
48062 U04:much
47796 U04:n't
40208 U04:narrow
101528 U04:national
6454 U04:near-record
65576 U04:necessary
13482 U04:new
113162 U04:next
138250 U04:nine
34776 U04:no
67844 U04:not
25410 U04:noted
24164 U04:number
97902 U04:obtaining
144018 U04:occurred
15596 U04:of
95690 U04:offer
98560 U04:official
138628 U04:offsetting
20832 U04:on
50666 U04:one
32382 U04:only
89250 U04:opened
138572 U04:opportunity
112980 U04:or
70056 U04:other
91042 U04:ounce
92190 U04:ounces
85386 U04:out
37884 U04:outlook
100492 U04:outstanding
10528 U04:over
101612 U04:over-the-counter
52262 U04:overall
131096 U04:overcapacity
106666 U04:partner
107254 U04:partnership
136374 U04:party
10710 U04:past
142240 U04:pay
127736 U04:perceived
37408 U04:pessimistic
66444 U04:place
151662 U04:plans
82418 U04:plunged
82838 U04:points
9436 U04:policy
124334 U04:polled
71946 U04:popularity
51688 U04:position
49672 U04:positions
78470 U04:posted
322 U04:pound
83104 U04:predict
80878 U04:preoccupied
65184 U04:prepared
25200 U04:pressure
10038 U04:prevent
144144 U04:previously
143766 U04:price
133770 U04:product
117642 U04:productivity
102606 U04:products
128394 U04:professor
70378 U04:promise
99036 U04:proposal
93604 U04:proposed
70588 U04:pushed
58772 U04:quarter
57610 U04:quickly
78778 U04:quiet
61530 U04:quite
86744 U04:quoted
132678 U04:rail
149310 U04:rail-traffic
128884 U04:railroads
151816 U04:raise
26978 U04:range
68698 U04:rate
16478 U04:rates
62720 U04:rather
42224 U04:raw
141666 U04:real
44016 U04:rebound
116718 U04:recent
122178 U04:recently
11200 U04:reckon
143416 U04:recoup
63308 U04:reduce
42042 U04:reduction
141218 U04:reductions
135548 U04:reflected
113428 U04:reflecting
102536 U04:refractory
31794 U04:registered
4354 U04:release
56532 U04:released
37114 U04:remains
67242 U04:reminded
141974 U04:replace
30674 U04:reported
8526 U04:restated
117936 U04:restrain
149170 U04:restrained
68222 U04:rigor
53984 U04:rise
63924 U04:rises
135114 U04:rising
15456 U04:risk
19642 U04:risks
58198 U04:rose
21644 U04:said
36722 U04:same
98000 U04:satisfactory
137732 U04:savings
19222 U04:say
136052 U04:saying
112686 U04:scheduled
58940 U04:second
48972 U04:see
139020 U04:segments
22400 U04:senior
62636 U04:services
90678 U04:settled
147196 U04:several
94654 U04:share
100338 U04:shares
2128 U04:sharp
83874 U04:shift
124278 U04:shippers
111720 U04:shipping
63210 U04:should
5194 U04:show
72856 U04:showing
21322 U04:side
34874 U04:sign
95956 U04:signing
73136 U04:signs
153244 U04:similar
81242 U04:since
120764 U04:slightly
53326 U04:slowdown
57456 U04:slowing
106554 U04:sole
43834 U04:some
72338 U04:sound
14266 U04:speech
58114 U04:spending
117446 U04:spot
109760 U04:spurred
134764 U04:squeezed
151242 U04:stabilize
103264 U04:stake
119980 U04:starting
10430 U04:sterling
61404 U04:still
80458 U04:stock
42448 U04:stockbuilding
123088 U04:storage
61670 U04:strong
95760 U04:subject
107884 U04:subsidiary
5488 U04:substantial
126868 U04:such
57036 U04:suggest
62146 U04:suggestions
119308 U04:supply
11606 U04:support
72044 U04:swiftly
135030 U04:system
1610 U04:take
54628 U04:takes
62846 U04:than
34972 U04:that
56 U04:the
17262 U04:their
23478 U04:there
71176 U04:they
58730 U04:third
54306 U04:this
110894 U04:threatening
113862 U04:tightened
36834 U04:time
144928 U04:times
1358 U04:to
4550 U04:tomorrow
32256 U04:topped
2856 U04:trade
73948 U04:trading
147448 U04:trailer
35602 U04:transforming
114394 U04:transport
119672 U04:transportation
137648 U04:transportation-cost
132510 U04:truck
128996 U04:trucking
149898 U04:trucks
143234 U04:try
49448 U04:turnaround
110488 U04:turning
152838 U04:two
119448 U04:types
77826 U04:unchanged
11382 U04:underlying
68488 U04:undermined
44646 U04:unexpected
26194 U04:unit
59164 U04:up
97832 U04:upon
127526 U04:upturn
110614 U04:upward
130270 U04:use
99176 U04:values
20510 U04:very
80360 U04:volatile
48734 U04:want
71288 U04:warn
53088 U04:warned
46788 U04:warns
59066 U04:was
126588 U04:we
149226 U04:weakening
68782 U04:weakness
10822 U04:week
62552 U04:went
131306 U04:were
81564 U04:when
80654 U04:which
45794 U04:who
854 U04:widely
40138 U04:will
60060 U04:with
51562 U04:without
47740 U04:wo
59668 U04:year
55958 U04:years
88270 U04:yen
45598 U05:#/1.3
40894 U05:#/1.8
29036 U05:#/2
31724 U05:#/2.2
32900 U05:#/2.3
74732 U05:$/1.5890
75502 U05:$/1.5940
101486 U05:$/1.875
99932 U05:$/106.6
133210 U05:$/150
29904 U05:$/3.2
132230 U05:$/35
105364 U05:$/35.50
105602 U05:$/36.50
93072 U05:$/366.50
91056 U05:$/367.30
101220 U05:$/38
94668 U05:$/40
99190 U05:$/40-a-share
77126 U05:%/,
103810 U05:%/.
17444 U05:%/from
58744 U05:%/in
60942 U05:%/increase
152656 U05:%/late
18172 U05:%/level
124250 U05:%/of
148190 U05:%/rate
60536 U05:%/rise
123830 U05:%/this
125580 U05:%/who
34426 U05:&/Co.
120456 U05:''/at
62272 U05:''/but
52080 U05:''/in
25550 U05:''/noted
22036 U05:''/said
137102 U05:'/''
143248 U05:'ll/see
78232 U05:'s/Market
89726 U05:'s/Tokyo
116592 U05:'s/a
95522 U05:'s/board
13230 U05:'s/failure
35504 U05:'s/manufacturing
6916 U05:'s/near-record
136794 U05:'s/over
72058 U05:'s/popularity
70448 U05:'s/promise
8834 U05:'s/restated
145614 U05:'s/still
44772 U05:'s/unexpected
140616 U05:'ve/gotten
137004 U05:,/'
21840 U05:,/''
150612 U05:,/Calif.
139860 U05:,/Cambridge
95662 U05:,/East
33712 U05:,/European
139972 U05:,/Mass.
102396 U05:,/Mo.
41468 U05:,/Mr.
25858 U05:,/U.K.
50680 U05:,/``
26306 U05:,/a
107898 U05:,/an
119924 U05:,/and
71820 U05:,/any
110278 U05:,/are
96950 U05:,/attached
77210 U05:,/both
27454 U05:,/but
125230 U05:,/compared
109060 U05:,/declining
121660 U05:,/director
147770 U05:,/discounted
134064 U05:,/down
4368 U05:,/due
18620 U05:,/economists
5208 U05:,/fail
38640 U05:,/given
90496 U05:,/gold
37268 U05:,/he
117950 U05:,/helping
101626 U05:,/in
104748 U05:,/including
132608 U05:,/inter-city
85148 U05:,/keeping
131110 U05:,/leading
146356 U05:,/lecturer
150752 U05:,/less-than-truckload
102550 U05:,/maker
133434 U05:,/or
52416 U05:,/overall
142422 U05:,/pay
113610 U05:,/reflecting
135254 U05:,/rising
34678 U05:,/said
112840 U05:,/scheduled
22666 U05:,/senior
111916 U05:,/shipping
123326 U05:,/storage
44982 U05:,/the
24486 U05:,/there
71442 U05:,/they
133000 U05:,/to
110754 U05:,/turning
87318 U05:,/up
46970 U05:,/warns
81886 U05:,/when
80892 U05:,/which
46018 U05:,/who
29708 U05:-LRB-/$
30436 U05:-RRB-/deficit
69202 U05:./''
58660 U05:0.1/%
45682 U05:1.3/billion
74886 U05:1.5890/and
75586 U05:1.5940/and
60452 U05:1.6/%
40992 U05:1.8/billion
87556 U05:1.8470/marks
87192 U05:1.8578/marks
101542 U05:1.875/,
124166 U05:10/%
100002 U05:106.6/million
81718 U05:13/,
89908 U05:141.35/yen
88676 U05:141.70/yen
89600 U05:141.95/yen
88452 U05:142.43/yen
18046 U05:15/%
133266 U05:150/billion
17276 U05:16/%
95116 U05:19/letter
83020 U05:190/points
129780 U05:1980/enabled
126686 U05:1980/that
134596 U05:1981/.
33376 U05:1988/.
100618 U05:2,664,098/shares
31808 U05:2.2/billion
32942 U05:2.3/billion
92344 U05:2.4/million
76790 U05:2.90/marks
75740 U05:2.9429/marks
75152 U05:2.9495/marks
29260 U05:2/billion
91532 U05:20/cents
104356 U05:233,000/A.P.
124432 U05:250/shippers
30114 U05:3.2/billion
59626 U05:3.8/%
104986 U05:30,000/shares
125454 U05:30/%
96782 U05:31/.
105462 U05:35.50/to
132272 U05:35/billion
105644 U05:36.50/a
93114 U05:366.50/an
91154 U05:367.30/an
101290 U05:38/,
148134 U05:4.7/%
123760 U05:4/%
99316 U05:40-a-share/proposal
94724 U05:40/a
152558 U05:5.3/%
60900 U05:5.4/%
133700 U05:6.4/%
103768 U05:8.7/%
134316 U05:8/%
94262 U05:A.P./Green
98574 U05:An/A.P.
150066 U05:An/official
69454 U05:Analysts/agree
71302 U05:And/,
148484 U05:April/.
139636 U05:Arthur/D.
36848 U05:At/the
6692 U05:August/'s
31192 U05:August/.
31360 U05:August/deficit
82614 U05:Average/plunged
26656 U05:Bank/PLC
34104 U05:Baring/Brothers
128296 U05:Bernard/LaLonde
108808 U05:Boston/.
108388 U05:Both/Westwood
107758 U05:Brick/Lime
108430 U05:Brick/and
25774 U05:Briscoe/,
35392 U05:Britain/'s
34272 U05:Brothers/&
11396 U05:But/analysts
56462 U05:But/consumer
134652 U05:But/with
150682 U05:Calif./,
139916 U05:Cambridge/,
130382 U05:Carriers/could
64456 U05:Certainly/,
7910 U05:Chancellor/of
22414 U05:Chris/Dillow
121520 U05:Clifford/Sayre
34566 U05:Co./,
122136 U05:Co/.
128856 U05:Columbus/.
43666 U05:Combined/with
97594 U05:Commission/,
90230 U05:Commodity/Exchange
336 U05:Confidence/in
150234 U05:Consolidated/Freightways
83188 U05:Currency/analysts
139706 U05:D./Little
139328 U05:Delaney/,
119098 U05:Demand/has
22554 U05:Dillow/,
41692 U05:Dillow/said
82334 U05:Dow/Jones
122010 U05:Du/Pont
93296 U05:East/Rock
76090 U05:Economists/suggested
91714 U05:Estimated/volume
33782 U05:European/economist
74102 U05:European/trading
97538 U05:Exchange/Commission
90300 U05:Exchange/in
8386 U05:Exchequer/Nigel
86142 U05:Federal/Reserve
26838 U05:Forecasts/for
79730 U05:Foreign/exchange
108906 U05:Freight/rates
150290 U05:Freightways/Inc.
151830 U05:Freightways/plans
78120 U05:Friday/'s
73906 U05:Friday/.
57050 U05:Friday/do
134470 U05:GNP/in
146230 U05:Gerard/McCullough
95452 U05:Green/'s
94374 U05:Green/Industries
104510 U05:Green/common
100212 U05:Green/currently
98644 U05:Green/official
103614 U05:Green/to
108262 U05:Group/Inc
108542 U05:Group/are
39998 U05:He/reckons
92820 U05:Hong/Kong
14658 U05:House/speech
41356 U05:However/,
23758 U05:If/there
74004 U05:In/European
88984 U05:In/Tokyo
94864 U05:In/an
92582 U05:In/early
52948 U05:In/his
106568 U05:Inc./,
94528 U05:Inc./for
108318 U05:Inc/.
82516 U05:Industrial/Average
94444 U05:Industries/Inc.
23436 U05:Institute/.
146650 U05:Institute/of
103992 U05:It/now
100968 U05:Its/stock
105994 U05:John/Kuhns
82432 U05:Jones/Industrial
33642 U05:Joshi/,
6258 U05:July/and
32396 U05:July/are
92876 U05:Kong/Monday
106106 U05:Kuhns/and
107058 U05:L.P/.
128352 U05:LaLonde/,
137270 U05:LaLonde/.
86296 U05:Late/in
8694 U05:Lawson/'s
53200 U05:Lawson/warned
146818 U05:Less-than-truckload/companies
107814 U05:Lime/Inc.
93548 U05:Limited/Partnership
139776 U05:Little/Inc.
106358 U05:MacDonald/control
114730 U05:Major/shippers
14476 U05:Mansion/House
78358 U05:Market/Activity
140014 U05:Mass./,
146594 U05:Massachusetts/Institute
146300 U05:McCullough/,
52346 U05:Meanwhile/,
150472 U05:Menlo/Park
102298 U05:Mexico/,
26600 U05:Midland/Bank
26110 U05:Midland/Montagu
102466 U05:Mo./,
89180 U05:Monday/,
26208 U05:Montagu/,
45808 U05:Mr./Briscoe
41566 U05:Mr./Dillow
137242 U05:Mr./LaLonde
53144 U05:Mr./Lawson
50190 U05:Nevertheless/,
86478 U05:New/York
105784 U05:New/York-based
8540 U05:Nigel/Lawson
50960 U05:No/one
23268 U05:Nomura/Research
144704 U05:Not/everyone
141498 U05:Now/we
81578 U05:Oct./13
95018 U05:Oct./19
96740 U05:Oct./31
33250 U05:October/1988
122654 U05:Ohio/State
90090 U05:On/the
124068 U05:Only/10
26712 U05:PLC/.
150542 U05:Park/,
106526 U05:Partners/Inc.
107016 U05:Partners/L.P
93478 U05:Partners/Limited
93618 U05:Partnership/said
122080 U05:Pont/Co
149114 U05:Railroad-rate/increases
23366 U05:Research/Institute
86198 U05:Reserve/.
139272 U05:Robert/Delaney
106274 U05:Robert/MacDonald
93394 U05:Rock/Partners
102900 U05:Rock/also
95704 U05:Rock/said
33558 U05:Sanjay/Joshi
121590 U05:Sayre/,
97398 U05:Securities/and
4158 U05:September/,
41202 U05:September/.
136164 U05:Shippers/are
132062 U05:Shippers/cut
122290 U05:Shippers/surveyed
137340 U05:Shippers/wo
25690 U05:Simon/Briscoe
122724 U05:State/University
128772 U05:State/in
72870 U05:Sterling/was
146748 U05:Technology/.
116508 U05:That/'s
99050 U05:The/$
31276 U05:The/August
87780 U05:The/U.S.
148540 U05:The/carriers
102032 U05:The/company
128898 U05:The/deregulation
78554 U05:The/dollar
58058 U05:The/figures
96824 U05:The/letter
19992 U05:The/risks
107128 U05:The/sole
145502 U05:There/'s
60116 U05:This/compares
15316 U05:This/has
126322 U05:This/is
67256 U05:Thursday/,
15092 U05:Thursday/.
105280 U05:Thursday/for
87654 U05:Thursday/in
89768 U05:Tokyo/close
89068 U05:Tokyo/on
138516 U05:Transport/rates
111804 U05:Trucking/,
55286 U05:U.K./base
22918 U05:U.K./economist
57470 U05:U.K./economy
86072 U05:U.S./Federal
87822 U05:U.S./currency
118342 U05:U.S./industry
117796 U05:U.S./productivity
122780 U05:University/said
140462 U05:We/'ve
107660 U05:Westwood/Brick
108206 U05:Westwood/Group
105882 U05:York-based/John
90412 U05:York/,
87752 U05:York/.
88816 U05:York/late
86562 U05:York/trading
143164 U05:You/'ll
100072 U05:_B-1/A.P.
98518 U05:_B-1/An
69356 U05:_B-1/Analysts
71190 U05:_B-1/And
36736 U05:_B-1/At
108346 U05:_B-1/Both
11214 U05:_B-1/But
130284 U05:_B-1/Carriers
64400 U05:_B-1/Certainly
7770 U05:_B-1/Chancellor
43526 U05:_B-1/Combined
70 U05:_B-1/Confidence
151676 U05:_B-1/Consolidated
83118 U05:_B-1/Currency
93212 U05:_B-1/East
76006 U05:_B-1/Economists
91630 U05:_B-1/Estimated
26740 U05:_B-1/Forecasts
79674 U05:_B-1/Foreign
108836 U05:_B-1/Freight
78022 U05:_B-1/Friday
39886 U05:_B-1/He
41244 U05:_B-1/However
52892 U05:_B-1/In
103866 U05:_B-1/It
100856 U05:_B-1/Its
86226 U05:_B-1/Late
146776 U05:_B-1/Less-than-truckload
114660 U05:_B-1/Major
52276 U05:_B-1/Meanwhile
45766 U05:_B-1/Mr.
50134 U05:_B-1/Nevertheless
105700 U05:_B-1/New
144606 U05:_B-1/Not
141414 U05:_B-1/Now
90020 U05:_B-1/On
123970 U05:_B-1/Only
149072 U05:_B-1/Railroad-rate
139230 U05:_B-1/Robert
33474 U05:_B-1/Sanjay
122192 U05:_B-1/Shippers
72758 U05:_B-1/Sterling
116438 U05:_B-1/That
31220 U05:_B-1/The
15190 U05:_B-1/This
67186 U05:_B-1/Thursday
138474 U05:_B-1/Transport
111734 U05:_B-1/Trucking
55216 U05:_B-1/U.K.
143094 U05:_B-1/You
19656 U05:_B-1/``
136514 U05:`/the
119000 U05:``/Demand
23604 U05:``/If
50820 U05:``/No
136066 U05:``/Shippers
19824 U05:``/The
145404 U05:``/There
126280 U05:``/This
140322 U05:``/We
67956 U05:``/can
120666 U05:``/close
61544 U05:``/is
151452 U05:``/stabilize
46578 U05:a/#
60368 U05:a/1.6
148078 U05:a/4.7
60844 U05:a/5.4
150402 U05:a/Menlo
102214 U05:a/Mexico
20342 U05:a/bad
116662 U05:a/big
117516 U05:a/bright
85400 U05:a/close
139412 U05:a/consultant
127400 U05:a/dramatic
97160 U05:a/filing
9450 U05:a/firm
51772 U05:a/flat
10444 U05:a/freefall
53396 U05:a/further
73542 U05:a/lack
92064 U05:a/light
145768 U05:a/lot
96236 U05:a/merger
120540 U05:a/rate
42238 U05:a/reduction
94780 U05:a/share
43274 U05:a/sharp
5712 U05:a/substantial
128408 U05:a/transportation
26390 U05:a/unit
28350 U05:a/very
59808 U05:a/year
79604 U05:abated/.
137578 U05:able/to
99848 U05:about/$
123690 U05:about/4
133616 U05:about/6.4
79394 U05:about/equities
38010 U05:about/the
118860 U05:abroad/.
40222 U05:account/deficit
46802 U05:account/gap
30884 U05:account/reported
94122 U05:acquire/A.P.
49966 U05:adjusting/positions
48440 U05:advance/much
44660 U05:after/August
65674 U05:again/if
60004 U05:ago/.
69566 U05:agree/there
96362 U05:agreement/by
112280 U05:air-freight/companies
140924 U05:all/the
68236 U05:allow/the
73150 U05:already/showing
88060 U05:also/changing
97916 U05:also/contingent
46354 U05:also/forecasts
102970 U05:also/said
94934 U05:an/Oct.
25130 U05:an/awful
107954 U05:an/indirect
138642 U05:an/opportunity
91252 U05:an/ounce
83258 U05:analysts/predict
11620 U05:analysts/reckon
19460 U05:analysts/say
75656 U05:and/2.9429
75026 U05:and/2.9495
6468 U05:and/August
97482 U05:and/Exchange
106204 U05:and/Robert
108458 U05:and/Westwood
60788 U05:and/a
112168 U05:and/air-freight
152852 U05:and/at
127652 U05:and/broad-based
39438 U05:and/capital
123480 U05:and/distribution
77616 U05:and/ensure
18942 U05:and/foreign
149800 U05:and/keen
118188 U05:and/make
115906 U05:and/maybe
142758 U05:and/pay
132818 U05:and/rail
119994 U05:and/rates
66822 U05:and/that
31570 U05:and/the
111230 U05:and/threatening
114156 U05:and/tightened
146006 U05:and/truck
129178 U05:and/trucking
59290 U05:and/was
13580 U05:announce/any
112602 U05:announced/rate
153356 U05:announced/similar
132524 U05:annual/,
24178 U05:another/bad
2632 U05:another/sharp
71890 U05:any/further
13664 U05:any/new
85750 U05:any/signs
97776 U05:approval/is
55454 U05:are/at
108626 U05:are/based
110376 U05:are/bottoming
47544 U05:are/bullish
135492 U05:are/likely
145180 U05:are/over
136276 U05:are/saying
120092 U05:are/starting
32536 U05:are/topped
20846 U05:are/very
45514 U05:as/#
142058 U05:as/carriers
79198 U05:as/concerns
115528 U05:as/fast
115668 U05:as/inflation
45304 U05:as/little
53872 U05:as/the
138026 U05:as/they
90958 U05:at/$
87136 U05:at/1.8578
89558 U05:at/141.95
88382 U05:at/142.43
139566 U05:at/Arthur
33950 U05:at/Baring
150178 U05:at/Consolidated
121940 U05:at/Du
146538 U05:at/Massachusetts
23170 U05:at/Nomura
128716 U05:at/Ohio
120512 U05:at/a
99750 U05:at/about
44030 U05:at/least
70070 U05:at/the
55566 U05:at/their
97048 U05:attached/to
67746 U05:audience/that
147994 U05:away/a
25214 U05:awful/lot
84602 U05:back/to
20412 U05:bad/trade
77798 U05:balance/of
130102 U05:bargain/for
16758 U05:base/rates
108696 U05:based/in
137508 U05:be/able
25004 U05:be/an
53718 U05:be/expected
76972 U05:be/forced
70742 U05:be/pushed
135688 U05:be/reflected
149240 U05:be/restrained
68628 U05:be/undermined
48748 U05:because/investors
109774 U05:because/of
12572 U05:been/eroded
49826 U05:before/adjusting
129612 U05:began/in
80066 U05:begun/to
16212 U05:being/forced
42056 U05:believes/that
76706 U05:below/2.90
141134 U05:benefits/of
116732 U05:big/change
133336 U05:billion/,
29498 U05:billion/-LRB-
30296 U05:billion/-RRB-
45738 U05:billion/.
46690 U05:billion/current
32998 U05:billion/deficit
132342 U05:billion/from
31920 U05:billion/gap
41076 U05:billion/in
95606 U05:board/,
36568 U05:boost/exports
103348 U05:boosted/its
66178 U05:both/ensure
145936 U05:both/rail
77294 U05:both/to
110502 U05:bottoming/out
105182 U05:bought/last
117586 U05:bright/spot
127750 U05:broad-based/upturn
47628 U05:bullish/for
27594 U05:but/few
62370 U05:but/suggestions
122584 U05:by/Ohio
86002 U05:by/U.S.
110096 U05:by/deregulation
68796 U05:by/exchange
42952 U05:by/industry
96432 U05:by/no
12852 U05:by/the
149422 U05:by/weakening
53634 U05:can/be
68054 U05:can/not
39578 U05:capital/goods
150864 U05:carrier/,
142142 U05:carriers/replace
143430 U05:carriers/try
148638 U05:carriers/were
147126 U05:carry/the
119252 U05:caught/up
91588 U05:cents/.
119602 U05:certain/types
13090 U05:chancellor/'s
64568 U05:chancellor/has
116802 U05:change/from
88158 U05:changing/hands
65072 U05:clear/that
85484 U05:close/eye
89810 U05:close/of
120778 U05:close/to
101136 U05:closed/at
52822 U05:clouded/.
83636 U05:coming/week
98854 U05:comment/on
9142 U05:commitment/to
104580 U05:common/shares
146888 U05:companies/,
112378 U05:companies/have
129388 U05:companies/that
99652 U05:company/at
102074 U05:company/is
125314 U05:compared/with
60186 U05:compares/with
148862 U05:competing/fiercely
149884 U05:competition/for
109956 U05:competition/spurred
118748 U05:competitive/abroad
153258 U05:competitors/have
79282 U05:concerns/about
73696 U05:confidence/in
139482 U05:consultant/at
39298 U05:consumer/and
56546 U05:consumer/expenditure
63322 U05:consumer/goods
98014 U05:contingent/upon
38990 U05:continued/high
106442 U05:control/East
138964 U05:cost/increases
132930 U05:costs/,
114016 U05:costs/and
135422 U05:costs/are
126154 U05:costs/in
123564 U05:costs/to
24836 U05:could/be
43092 U05:could/lead
45136 U05:could/narrow
72226 U05:could/swiftly
130494 U05:could/use
79912 U05:currency/market
89334 U05:currency/opened
87892 U05:currency/was
47922 U05:currency/wo
17906 U05:current/15
30772 U05:current/account
90748 U05:current/delivery
100352 U05:currently/has
132132 U05:cut/about
144158 U05:cutting/that
56784 U05:data/released
61264 U05:data/show
28168 U05:data/to
86702 U05:day/,
79828 U05:dealers/said
109690 U05:decade/because
44926 U05:decline/,
77546 U05:decline/and
67060 U05:decline/further
74466 U05:declined/to
109172 U05:declining/for
125118 U05:decrease/,
18368 U05:defend/the
31458 U05:deficit/and
45080 U05:deficit/could
30562 U05:deficit/in
33054 U05:deficit/of
40320 U05:deficit/will
7378 U05:deficits/.
90804 U05:delivery/settled
114408 U05:demand/for
110180 U05:deregulation/,
126532 U05:deregulation/in
128940 U05:deregulation/of
135842 U05:directly/in
121716 U05:director/of
147882 U05:discounted/away
151102 U05:discounting/in
80248 U05:distance/itself
123522 U05:distribution/costs
3066 U05:dive/if
57162 U05:do/n't
66948 U05:does/n't
66556 U05:does/take
78666 U05:dollar/posted
86828 U05:dollar/was
134162 U05:down/from
21518 U05:down/side
127540 U05:dramatic/and
43372 U05:drop/in
4564 U05:due/for
147518 U05:each/truck
131754 U05:eager/to
54642 U05:earlier/this
113372 U05:early/next
92638 U05:early/trading
85918 U05:easing/by
84882 U05:economic/fundamentals
23044 U05:economist/at
25998 U05:economist/for
18774 U05:economists/and
27846 U05:economists/expect
139202 U05:economy/.
61418 U05:economy/``
57526 U05:economy/is
52640 U05:economy/remains
55174 U05:effect/.
130998 U05:efficiently/,
138334 U05:eight/or
56238 U05:eight/years
129892 U05:enabled/shippers
66276 U05:ensure/that
142338 U05:equipment/,
130760 U05:equipment/more
79506 U05:equities/abated
12726 U05:eroded/by
47306 U05:even/if
144816 U05:everyone/believes
49462 U05:evidence/of
52528 U05:evidence/on
80766 U05:exchange/,
79786 U05:exchange/dealers
19236 U05:exchange/market
68880 U05:exchange/rate
115122 U05:expect/freight
27958 U05:expect/the
122990 U05:expect/their
53802 U05:expected/as
124726 U05:expected/their
1890 U05:expected/to
56658 U05:expenditure/data
36666 U05:exports/.
44576 U05:exports/after
85568 U05:eye/out
5362 U05:fail/to
13370 U05:failure/to
52738 U05:fairly/clouded
37758 U05:fairly/pessimistic
113176 U05:fall/or
76510 U05:falls/much
115598 U05:fast/as
116186 U05:faster/in
63770 U05:fears/of
27720 U05:few/economists
116396 U05:few/years
148960 U05:fiercely/for
20664 U05:figure/are
47460 U05:figures/are
3696 U05:figures/for
27090 U05:figures/range
58128 U05:figures/show
51632 U05:figures/without
98924 U05:filing/.
103124 U05:filing/that
97216 U05:filing/with
131964 U05:fill/.
98490 U05:financing/.
70014 U05:firm/at
9604 U05:firm/monetary
60704 U05:first/quarter
126392 U05:first/year
51856 U05:flat/position
84448 U05:focus/back
94598 U05:for/$
31122 U05:for/August
26054 U05:for/Midland
3934 U05:for/September
117726 U05:for/U.S.
85708 U05:for/any
90692 U05:for/current
114506 U05:for/freight
38304 U05:for/imports
142996 U05:for/labor
149016 U05:for/market
109312 U05:for/most
138796 U05:for/offsetting
4732 U05:for/release
145264 U05:for/shippers
12264 U05:for/sterling
26922 U05:for/the
112994 U05:for/this
89460 U05:for/trading
130172 U05:for/transportation
137830 U05:for/transportation-cost
16352 U05:forced/to
46494 U05:forecasts/a
19096 U05:foreign/exchange
10542 U05:freefall/in
141330 U05:freight-cost/reductions
141918 U05:freight-rate/increases
123214 U05:freight-transport/,
124880 U05:freight-transport/costs
135128 U05:freight-transport/system
149940 U05:freight/from
117278 U05:freight/haulage
147252 U05:freight/of
115192 U05:freight/rates
114562 U05:freight/transport
119798 U05:freight/transportation
75404 U05:from/$
87500 U05:from/1.8470
88634 U05:from/141.70
134246 U05:from/8
89684 U05:from/Friday
6076 U05:from/July
59724 U05:from/a
116858 U05:from/recent
28714 U05:from/the
17612 U05:from/their
149982 U05:from/trucks
142660 U05:fuel/costs
111608 U05:fuel/inflation
85022 U05:fundamentals/,
67130 U05:further/.
77490 U05:further/decline
71932 U05:further/drop
49378 U05:further/evidence
53466 U05:further/slowdown
78918 U05:gains/in
46872 U05:gap/,
32032 U05:gap/registered
106848 U05:general/partner
38822 U05:given/continued
51408 U05:go/into
90594 U05:gold/for
92946 U05:gold/was
145068 U05:good/times
39718 U05:goods/inflows
63406 U05:goods/should
140770 U05:gotten/all
71988 U05:government/'s
67858 U05:government/``
16058 U05:government/being
76930 U05:government/will
133840 U05:gross/national
125832 U05:had/looked
127120 U05:had/such
77448 U05:halt/any
88284 U05:hands/at
100506 U05:has/2,664,098
12446 U05:has/been
80010 U05:has/begun
119196 U05:has/caught
10052 U05:has/helped
15470 U05:has/increased
64666 U05:has/made
81158 U05:has/preoccupied
117376 U05:haulage/was
112490 U05:have/announced
138138 U05:have/for
126994 U05:have/had
41930 U05:he/believes
65296 U05:he/is
50358 U05:he/noted
37422 U05:he/remains
67410 U05:he/reminded
21196 U05:heavily/on
10164 U05:helped/to
118020 U05:helping/to
39144 U05:high/consumer
113876 U05:higher/costs
135940 U05:higher/freight
142590 U05:higher/fuel
70980 U05:higher/if
55818 U05:highest/level
14280 U05:his/Mansion
67648 U05:his/audience
69930 U05:holding/sterling
104244 U05:holds/233,000
72702 U05:hollow/.
65786 U05:if/necessary
47376 U05:if/the
3276 U05:if/trade
53956 U05:impact/of
148372 U05:implemented/last
64246 U05:import/rises
38458 U05:imports/,
43470 U05:imports/.
5922 U05:improvement/from
126602 U05:in/1980
134540 U05:in/1981
103488 U05:in/A.P.
108766 U05:in/Boston
128814 U05:in/Columbus
92764 U05:in/Hong
32270 U05:in/July
73738 U05:in/Mr.
87710 U05:in/New
41146 U05:in/September
145908 U05:in/both
147462 U05:in/each
56112 U05:in/eight
44520 U05:in/exports
141274 U05:in/freight-cost
135898 U05:in/higher
14112 U05:in/his
43428 U05:in/imports
54208 U05:in/interest
101724 U05:in/national
139076 U05:in/other
126182 U05:in/past
127946 U05:in/perceived
79016 U05:in/quiet
42462 U05:in/raw
10640 U05:in/sterling
151144 U05:in/that
602 U05:in/the
146454 U05:in/transportation
104860 U05:including/30,000
16604 U05:increase/base
60970 U05:increase/from
148302 U05:increase/implemented
65492 U05:increase/interest
77042 U05:increase/rates
15610 U05:increased/the
112770 U05:increases/,
153468 U05:increases/.
149156 U05:increases/are
141988 U05:increases/as
139034 U05:increases/in
108010 U05:indirect/subsidiary
43036 U05:industry/could
151200 U05:industry/has
35756 U05:industry/is
118468 U05:industry/more
134904 U05:inefficiency/squeezed
111678 U05:inflation/.
115766 U05:inflation/and
121324 U05:inflation/rate
39816 U05:inflows/.
132692 U05:inter-city/truck
54320 U05:interest/rates
51506 U05:into/the
48874 U05:investors/will
107548 U05:is/Westwood
102130 U05:is/a
97846 U05:is/also
24066 U05:is/another
69776 U05:is/little
34986 U05:is/no
65380 U05:is/prepared
57624 U05:is/slowing
61684 U05:is/still
95900 U05:is/subject
126364 U05:is/the
35910 U05:is/transforming
1372 U05:is/widely
103278 U05:it/boosted
64932 U05:it/clear
74326 U05:it/declined
93758 U05:it/proposed
84294 U05:its/focus
152334 U05:its/rates
103404 U05:its/stake
80374 U05:itself/from
36260 U05:itself/to
149842 U05:keen/competition
85274 U05:keeping/a
143052 U05:labor/.
73598 U05:lack/of
148442 U05:last/April
14966 U05:last/Thursday
138264 U05:last/eight
54082 U05:last/rise
75922 U05:late/Thursday
152726 U05:late/this
96600 U05:later/than
43148 U05:lead/to
131208 U05:leading/to
115444 U05:least/as
44198 U05:least/some
153034 U05:least/two
146398 U05:lecturer/in
150808 U05:less-than-truckload/carrier
96880 U05:letter/,
95228 U05:letter/to
55972 U05:level/in
18256 U05:level/to
149730 U05:levels/and
92204 U05:light/2.4
135562 U05:likely/to
107226 U05:limited/partner
45416 U05:little/as
69860 U05:little/holding
121856 U05:logistics/at
128562 U05:logistics/professor
137746 U05:look/for
125930 U05:looked/to
25284 U05:lot/of
64792 U05:made/it
118244 U05:make/U.S.
72352 U05:make/this
102620 U05:maker/of
35616 U05:manufacturing/industry
28546 U05:marked/improvement
19348 U05:market/analysts
79954 U05:market/has
149044 U05:market/share
81396 U05:market/since
83930 U05:market/will
76860 U05:marks/,
75292 U05:marks/from
75838 U05:marks/late
42728 U05:material/stockbuilding
116046 U05:maybe/faster
13958 U05:measures/in
96292 U05:merger/agreement
100044 U05:million/.
92456 U05:million/ounces
70196 U05:moment/other
85848 U05:monetary/easing
9758 U05:monetary/policy
54964 U05:month/takes
118608 U05:more/competitive
130886 U05:more/efficiently
142926 U05:more/for
64092 U05:more/import
82852 U05:more/than
109452 U05:most/of
120302 U05:move/up
48594 U05:much/because
76622 U05:much/below
62538 U05:much/of
48258 U05:n't/advance
137438 U05:n't/be
66990 U05:n't/decline
57260 U05:n't/suggest
40558 U05:narrow/to
101836 U05:national/over-the-counter
133896 U05:national/product
7140 U05:near-record/deficits
71134 U05:necessary/.
68348 U05:necessary/rigor
65912 U05:necessary/to
13748 U05:new/policy
116354 U05:next/few
113442 U05:next/year
138432 U05:nine/years
96502 U05:no/later
35084 U05:no/sign
68152 U05:not/allow
50512 U05:noted/,
25620 U05:noted/Simon
104118 U05:now/holds
24346 U05:number/,
98294 U05:obtaining/satisfactory
144396 U05:occurred/previously
89852 U05:of/141.35
61040 U05:of/1988
106946 U05:of/East
134400 U05:of/GNP
26544 U05:of/Midland
33138 U05:of/October
146706 U05:of/Technology
108150 U05:of/Westwood
20286 U05:of/a
119532 U05:of/certain
109858 U05:of/competition
73654 U05:of/confidence
141190 U05:of/deregulation
119756 U05:of/freight
133784 U05:of/gross
121786 U05:of/logistics
68432 U05:of/monetary
63938 U05:of/more
25354 U05:of/pressure
129010 U05:of/railroads
102704 U05:of/refractory
147294 U05:of/several
8078 U05:of/the
95830 U05:offer/is
150122 U05:official/at
98714 U05:official/declined
138880 U05:offsetting/cost
89138 U05:on/Monday
145852 U05:on/rates
62860 U05:on/services
21336 U05:on/the
51086 U05:one/will
40796 U05:only/#
32788 U05:only/by
89390 U05:opened/for
138712 U05:opportunity/for
133532 U05:or/about
113288 U05:or/early
138390 U05:or/nine
121002 U05:or/slightly
139118 U05:other/segments
70280 U05:other/than
91336 U05:ounce/,
93156 U05:ounce/.
92526 U05:ounces/.
110628 U05:out/,
85638 U05:out/for
135016 U05:out/of
38178 U05:outlook/for
100800 U05:outstanding/.
101934 U05:over-the-counter/trading
136892 U05:over/,
145222 U05:over/for
10836 U05:over/the
52472 U05:overall/evidence
131432 U05:overcapacity/they
106904 U05:partner/of
107422 U05:partnership/is
136696 U05:party/'s
11018 U05:past/week
126210 U05:past/years
142506 U05:pay/higher
142842 U05:pay/more
128030 U05:perceived/transportation
37898 U05:pessimistic/about
66752 U05:place/and
151956 U05:plans/to
82726 U05:plunged/more
83076 U05:points/.
9912 U05:policy/has
13832 U05:policy/measures
77868 U05:policy/remains
68502 U05:policy/to
124628 U05:polled/expected
72142 U05:popularity/could
51968 U05:position/''
50078 U05:positions/.
78792 U05:posted/gains
18494 U05:pound/,
52220 U05:pound/.
76412 U05:pound/falls
1120 U05:pound/is
83314 U05:predict/that
81256 U05:preoccupied/the
65436 U05:prepared/to
25424 U05:pressure/,
145824 U05:pressure/on
10346 U05:prevent/a
144494 U05:previously/.
144032 U05:price/cutting
133966 U05:product/,
117866 U05:productivity/,
102844 U05:products/.
128646 U05:professor/at
73836 U05:promise/Friday
72520 U05:promise/sound
70504 U05:promise/that
99442 U05:proposal/values
93856 U05:proposed/to
70854 U05:pushed/higher
59178 U05:quarter/and
58954 U05:quarter/from
60998 U05:quarter/of
57960 U05:quickly/.
79086 U05:quiet/trading
61936 U05:quite/strong
87038 U05:quoted/at
149632 U05:rail-traffic/levels
145964 U05:rail/and
132860 U05:rail/costs
129094 U05:railroads/and
152208 U05:raise/its
27188 U05:range/widely
121352 U05:rate/,
120596 U05:rate/``
151046 U05:rate/discounting
148232 U05:rate/increase
112700 U05:rate/increases
68964 U05:rate/weakness
108976 U05:rates/,
135968 U05:rates/.
152446 U05:rates/5.3
65590 U05:rates/again
55370 U05:rates/are
54474 U05:rates/earlier
145880 U05:rates/in
16940 U05:rates/to
70602 U05:rates/will
138558 U05:rates/wo
63112 U05:rather/than
42588 U05:raw/material
141834 U05:real/freight-rate
44450 U05:rebound/in
116928 U05:recent/years
122500 U05:recently/by
11830 U05:reckon/underlying
40096 U05:reckons/the
143682 U05:recoup/some
126126 U05:reduce/costs
63616 U05:reduce/fears
42336 U05:reduction/in
141386 U05:reductions/.
135758 U05:reflected/directly
113736 U05:reflecting/higher
102774 U05:refractory/products
32144 U05:registered/in
4886 U05:release/tomorrow
56910 U05:released/Friday
37604 U05:remains/fairly
77924 U05:remains/unchanged
67522 U05:reminded/his
142254 U05:replace/equipment
31010 U05:reported/for
8974 U05:restated/commitment
118132 U05:restrain/inflation
149324 U05:restrained/by
68390 U05:rigor/of
123634 U05:rise/about
115290 U05:rise/at
54138 U05:rise/in
64358 U05:rises/.
135338 U05:rising/costs
15792 U05:risk/of
20132 U05:risks/for
58562 U05:rose/0.1
128240 U05:said/Bernard
22232 U05:said/Chris
121450 U05:said/Clifford
146160 U05:said/Gerard
137214 U05:said/Mr.
140182 U05:said/``
41804 U05:said/he
103040 U05:said/in
93688 U05:said/it
150976 U05:said/rate
79870 U05:said/that
61166 U05:said/the
34790 U05:said/there
122836 U05:said/they
37016 U05:same/time
98406 U05:satisfactory/financing
137970 U05:savings/as
19558 U05:say/.
114912 U05:say/they
136388 U05:saying/`
112910 U05:scheduled/for
60606 U05:second/from
59080 U05:second/quarter
143332 U05:see/carriers
49280 U05:see/further
141764 U05:see/real
139160 U05:segments/of
22778 U05:senior/U.K.
62986 U05:services/rather
90888 U05:settled/at
147350 U05:several/shippers
94822 U05:share/.
104664 U05:shares/,
105098 U05:shares/bought
100730 U05:shares/outstanding
2870 U05:sharp/dive
43330 U05:sharp/drop
84154 U05:shift/its
145306 U05:shippers/.
147406 U05:shippers/in
124530 U05:shippers/polled
114828 U05:shippers/say
129990 U05:shippers/to
112042 U05:shipping/and
63504 U05:should/reduce
5614 U05:show/a
58212 U05:show/that
61292 U05:show/the
73290 U05:showing/some
21658 U05:side/,
35182 U05:sign/that
96138 U05:signing/of
73458 U05:signs/of
153412 U05:similar/increases
81466 U05:since/Oct.
126448 U05:since/transportation
121114 U05:slightly/more
53536 U05:slowdown/can
66458 U05:slowdown/does
57722 U05:slowing/that
106764 U05:sole/general
107184 U05:sole/limited
143780 U05:some/of
44338 U05:some/rebound
73388 U05:some/signs
72618 U05:sound/hollow
53046 U05:speech/,
14812 U05:speech/last
58436 U05:spending/rose
62650 U05:spending/went
117656 U05:spot/for
110040 U05:spurred/by
134974 U05:squeezed/out
151564 U05:stabilize/.
103446 U05:stake/in
120162 U05:starting/to
47712 U05:sterling/,
66906 U05:sterling/does
69972 U05:sterling/firm
12334 U05:sterling/has
20244 U05:sterling/of
10724 U05:sterling/over
145698 U05:still/a
61810 U05:still/quite
101066 U05:stock/closed
80668 U05:stock/exchange
42840 U05:stockbuilding/by
123410 U05:storage/and
62048 U05:strong/,
95970 U05:subject/to
108080 U05:subsidiary/of
5810 U05:substantial/improvement
66374 U05:substantial/slowdown
127246 U05:such/a
57330 U05:suggest/that
76188 U05:suggested/that
62454 U05:suggestions/that
119462 U05:supply/of
12152 U05:support/for
122402 U05:surveyed/recently
72282 U05:swiftly/make
135184 U05:system/,
2394 U05:take/another
66668 U05:take/place
55076 U05:takes/effect
82950 U05:than/190
70350 U05:than/Mr.
96684 U05:than/Oct.
63224 U05:than/consumer
121254 U05:than/the
35280 U05:that/Britain
42154 U05:that/a
129500 U05:that/began
47222 U05:that/even
65198 U05:that/he
76272 U05:that/if
83384 U05:that/in
151172 U05:that/industry
103194 U05:that/it
62510 U05:that/much
144284 U05:that/occurred
57848 U05:that/quickly
70560 U05:that/rates
58310 U05:that/spending
66864 U05:that/sterling
57386 U05:that/the
126784 U05:that/we
28854 U05:the/#
124348 U05:the/250
90160 U05:the/Commodity
82208 U05:the/Dow
8246 U05:the/Exchequer
86408 U05:the/New
97328 U05:the/Securities
57414 U05:the/U.K.
89264 U05:the/U.S.
97720 U05:the/approval
77756 U05:the/balance
141050 U05:the/benefits
12978 U05:the/chancellor
83524 U05:the/coming
99596 U05:the/company
47810 U05:the/currency
30688 U05:the/current
28070 U05:the/data
109634 U05:the/decade
45038 U05:the/deficit
86758 U05:the/dollar
21434 U05:the/down
52584 U05:the/economy
98896 U05:the/filing
60662 U05:the/first
83832 U05:the/foreign
147210 U05:the/freight
135072 U05:the/freight-transport
144998 U05:the/good
15932 U05:the/government
53914 U05:the/impact
134834 U05:the/inefficiency
121296 U05:the/inflation
54026 U05:the/last
81326 U05:the/market
70126 U05:the/moment
68306 U05:the/necessary
116312 U05:the/next
95774 U05:the/offer
38094 U05:the/outlook
107324 U05:the/partnership
136612 U05:the/party
10920 U05:the/past
868 U05:the/pound
143934 U05:the/price
15708 U05:the/risk
36946 U05:the/same
59024 U05:the/second
96082 U05:the/signing
106680 U05:the/sole
62594 U05:the/spending
119392 U05:the/supply
58828 U05:the/third
26992 U05:the/trade
49574 U05:the/turnaround
80542 U05:the/volatile
132440 U05:their/annual
17752 U05:their/current
130662 U05:their/equipment
123102 U05:their/freight-transport
55692 U05:their/highest
24654 U05:there/could
23926 U05:there/is
115024 U05:they/expect
138082 U05:they/have
71582 U05:they/warn
131544 U05:they/were
58884 U05:third/quarter
113078 U05:this/fall
54810 U05:this/month
72436 U05:this/promise
123886 U05:this/year
111384 U05:threatening/to
114282 U05:tightened/demand
37128 U05:time/,
145138 U05:times/are
74592 U05:to/$
17108 U05:to/16
103698 U05:to/8.7
95326 U05:to/A.P.
151340 U05:to/``
9296 U05:to/a
133098 U05:to/about
93982 U05:to/acquire
13496 U05:to/announce
45234 U05:to/as
130046 U05:to/bargain
68572 U05:to/be
36428 U05:to/boost
66052 U05:to/both
98812 U05:to/comment
125020 U05:to/decrease
18326 U05:to/defend
80150 U05:to/distance
84742 U05:to/economic
131866 U05:to/fill
125986 U05:to/freight
111510 U05:to/fuel
51310 U05:to/go
77378 U05:to/halt
16492 U05:to/increase
137662 U05:to/look
120232 U05:to/move
40684 U05:to/only
120890 U05:to/or
131320 U05:to/overcapacity
10262 U05:to/prevent
152082 U05:to/raise
143612 U05:to/recoup
126098 U05:to/reduce
118090 U05:to/restrain
115248 U05:to/rise
49182 U05:to/see
5502 U05:to/show
2142 U05:to/take
96040 U05:to/the
5040 U05:tomorrow/,
32676 U05:topped/only
20524 U05:trade/figure
3472 U05:trade/figures
24262 U05:trade/number
102004 U05:trading/.
79142 U05:trading/as
89516 U05:trading/at
86632 U05:trading/day
92708 U05:trading/in
74200 U05:trading/it
147672 U05:trailer/,
36078 U05:transforming/itself
114618 U05:transport/.
126042 U05:transport/to
137900 U05:transportation-cost/savings
119854 U05:transportation/,
130228 U05:transportation/.
146496 U05:transportation/at
126490 U05:transportation/deregulation
128478 U05:transportation/logistics
128100 U05:transportation/rates
146048 U05:truck/,
132762 U05:truck/and
147588 U05:truck/trailer
129276 U05:trucking/companies
150024 U05:trucks/.
143528 U05:try/to
49686 U05:turnaround/before
110908 U05:turning/upward
153146 U05:two/competitors
119686 U05:types/of
77980 U05:unchanged/.
12012 U05:underlying/support
68712 U05:undermined/by
44842 U05:unexpected/decline
26474 U05:unit/of
101430 U05:up/$
120386 U05:up/''
91462 U05:up/20
59542 U05:up/3.8
87416 U05:up/from
119322 U05:up/with
98154 U05:upon/obtaining
127848 U05:upturn/in
111062 U05:upward/and
130578 U05:use/their
99526 U05:values/the
21028 U05:very/heavily
28448 U05:very/marked
80598 U05:volatile/stock
91826 U05:volume/was
49084 U05:want/to
71708 U05:warn/,
53270 U05:warned/that
47096 U05:warns/that
91938 U05:was/a
73010 U05:was/already
87976 U05:was/also
86926 U05:was/quoted
59416 U05:was/up
141596 U05:we/are
126882 U05:we/have
149520 U05:weakening/rail-traffic
69076 U05:weakness/.
11116 U05:week/.
83748 U05:week/the
62734 U05:went/on
148750 U05:were/competing
131642 U05:were/eager
117166 U05:when/freight
82054 U05:when/the
147042 U05:which/carry
81032 U05:which/has
46186 U05:who/also
125706 U05:who/had
27328 U05:widely/,
1624 U05:widely/expected
70658 U05:will/be
40432 U05:will/narrow
84028 U05:will/shift
48986 U05:will/want
125370 U05:with/30
60284 U05:with/a
43848 U05:with/at
134708 U05:with/much
97272 U05:with/the
51702 U05:without/a
48076 U05:wo/n't
113512 U05:year/,
123928 U05:year/.
59906 U05:year/ago
152796 U05:year/or
126420 U05:year/since
56350 U05:years/.
117040 U05:years/when
88522 U05:yen/,
89964 U05:yen/.
88718 U05:yen/in
45528 U06:#/1.3
40810 U06:#/1.8
28868 U06:#/2
31654 U06:#/2.2
32872 U06:#/2.3
74606 U06:$/1.5890
75418 U06:$/1.5940
101444 U06:$/1.875
99862 U06:$/106.6
133168 U06:$/150
29722 U06:$/3.2
132188 U06:$/35
105308 U06:$/35.50
105546 U06:$/36.50
93030 U06:$/366.50
90972 U06:$/367.30
101178 U06:$/38
94612 U06:$/40
99064 U06:$/40-a-share
77098 U06:%/,
103782 U06:%/.
17290 U06:%/from
58674 U06:%/in
60914 U06:%/increase
152572 U06:%/late
18060 U06:%/level
124180 U06:%/of
148148 U06:%/rate
60466 U06:%/rise
123774 U06:%/this
125468 U06:%/who
34286 U06:&/Co.
69216 U06:''/_B+1
120400 U06:''/at
62160 U06:''/but
51982 U06:''/in
25494 U06:''/noted
21854 U06:''/said
137018 U06:'/''
143178 U06:'ll/see
78134 U06:'s/Market
89712 U06:'s/Tokyo
116522 U06:'s/a
95466 U06:'s/board
13104 U06:'s/failure
35406 U06:'s/manufacturing
6706 U06:'s/near-record
136710 U06:'s/over
72002 U06:'s/popularity
70406 U06:'s/promise
8708 U06:'s/restated
145516 U06:'s/still
44716 U06:'s/unexpected
140476 U06:'ve/gotten
136906 U06:,/'
21672 U06:,/''
150556 U06:,/Calif.
139818 U06:,/Cambridge
95620 U06:,/East
33656 U06:,/European
139930 U06:,/Mass.
102312 U06:,/Mo.
41370 U06:,/Mr.
25788 U06:,/U.K.
50526 U06:,/``
26222 U06:,/a
107856 U06:,/an
119868 U06:,/and
71722 U06:,/any
110194 U06:,/are
96894 U06:,/attached
77140 U06:,/both
27342 U06:,/but
125132 U06:,/compared
108990 U06:,/declining
121604 U06:,/director
147686 U06:,/discounted
133980 U06:,/down
4172 U06:,/due
18508 U06:,/economists
5054 U06:,/fail
38472 U06:,/given
90426 U06:,/gold
37142 U06:,/he
117880 U06:,/helping
101556 U06:,/in
104678 U06:,/including
132538 U06:,/inter-city
85036 U06:,/keeping
131012 U06:,/leading
146314 U06:,/lecturer
150696 U06:,/less-than-truckload
102480 U06:,/maker
133350 U06:,/or
52360 U06:,/overall
142352 U06:,/pay
113526 U06:,/reflecting
135198 U06:,/rising
34580 U06:,/said
112784 U06:,/scheduled
22568 U06:,/senior
111818 U06:,/shipping
123228 U06:,/storage
44940 U06:,/the
24360 U06:,/there
71316 U06:,/they
